tree
version=v4
num_class=1
num_tree_per_iteration=1
label_index=0
max_feature_idx=14
objective=regression
feature_names=Scr Glucose Na Platelets WBC Total_Bilirubin LDL LDH UA Total_Protein Fibrinogen CKD Pneumonia Cardiac_glycosides Aspirin
feature_infos=[1:1602.5899999999999] [0.68000000000000005:38.899999999999999] [100:192] [0:1642] [0:562.28999999999996] [0.10000000000000001:1261.4000000000001] [0.034678230999999997:16.800000000000001] [22:8623] [22:1465.3] [17.899999999999999:154.06] [0.20000000000000001:12.91] [0:1] [0:1] [0:1] [0:1]
tree_sizes=3331 3545 3542 3545 3538 3547 3538 3544 3546 3551 3543 3550 3553 3551 3553 3552 3562 3551 3544 3564 3547 3553 3560 3545 3540 3565 3547 3545 3557 3557 3552 3555 3555 3545 3554 3544 3544 3545 3537 3554 3554 3537 3543 3541 3555 3569 3545 3555 3552 3558 3563 3548 3567 3556 3556 3567 3561 3563 3579 3568 3558 3562 3585 3578 3581 3574 3557 3581 3582 3573 3580 3581 3572 3568 3570 3552 3570 3559 3566 3578 3550 3574 3571 3569 3565 3587 3549 3574 3563 3574 3569 3560 3568 3578 3574 3577 3582 3568 3559 3555 3561 3551 3583 3560 3565 3563 3557 3573 3580 3575 3576 3556 3566 3566 3559 3563 3566 3563 3557 3562 3545 3555 3564 3571 3557 3548 3556 3561 3556 3572 3556 3555 3557 3561 3561 3563 3548 3563 3561 3574 3552 3556 3551 3553 3573 3548 3569 3572 3558 3574 3561 3574 3569 3575 3575 3567 3567 3576 3570 3580 3570 3571 3568 3580 3575 3569 3556 3542 3554 3566 3578 3580 3565 3577 3566 3561 3580 3560 3580 3565 3577 3572 3574 3566 3576 3553 3558 3585 3581 3563 3578 3558 3581 3575 3575 3571 3544 3564 3579 3572 3573 3572 3572 3578 3556 3581 3554 3577 3561 3555 3567 3573 3566 3582 3583 3561 3563 3582 3593 3586 3576 3587 3570 3593 3575 3582 3577 3581 3572 3575 3565 3564 3567 3556 3575 3558 3584 3560 3576 3562 3563 3568 3585 3572 3563 3573 3559 3561 3578 3564 3556 3574 3567 3576 3592 3559 3580 3561 3571 3554 3568 3573 3580 3575 3571 3569 3591 3559 3569 3556 3562 3589 3580 3567 3574 3561 3566 3583 3570 3578 3567 3587 3575 3569 3588 3567 3567 3553 3536 3574 3571 3570 3546 3571 3570 3552 3557 3544 3566 3562 3551 3561 3571 3564 3549 3560 3562 3577 3550 3572 3569 3571 3566 3577 3574 3570 3562 3577 3582 3567 3578 3585 3562 3550 3571 3565 3549 3574 3573 3581 3565 3573 3581 3559 3554 3564 3576 3559 3559 3570 3578 3555 3561 3558 3551 3567 3550 3567 3542 3560 3569 3576 3559 3546 3575 3565 3547 3554 3569 3538 3559 3565 3545 3545 3570 3561 3575 3551 3565 3562 3574 3552 3565 3580 3565 3545 3577 3573 3551 3574 3570 3567 3564 3552 3556 3576 3559 3567 3583 3570 3547 3562 3564 3561 3565 3556 3569 3551 3570 3578 3555 3554 3553 3546 3555 3549 3561 3547 3554 3557 3542 3554 3563 3549 3558 3572 3565 3562 3569 3542 3540 3552 3560 3563 3556 3572 3551 3556 3568 3553 3567 3560 3547 3549 3562 3540 3550 3563 3563 3566 3548 3546 3561 3563 3562 3561 3555 3563 3538 3549 3560 3558 3551 3559 3557 3528 3544 3572 3550 3558 3545 3556 3548 3547 3540 3561 3547 3565 3547 3559 3567 3541 3539 3561 3555 3568 3546 3559 3570 3544 3556 3551 3550 3570 3563 3572 3533 3576 3565 3569 3577 3557 3564 3537 3563 3560 3544 3538 3546 3556 3556 3568 3559 3556 3565 3563 3562 3538 3565 3548 3565 3568 3552 3347 3566 3568 3560 3577 3566 3548 3555 3559 3568 3553 3564 3567 3335 3578 3575 3547 3555 3531 3572 3566 3530 3561 3559 3339 3573 3546 3423 3565 3552 3581 3417 3576 3575 3546 3566 3553 3572 3566 3556 3575 3572 3550 3563 3427 3570 3546 3549 3554 3573 3573 3549 3549 3571 3536 3562 3558 3573 3555 3555 3549 3555 3557 3561 3549 3569 3553 3563 3567 3553 3573 3537 3548 3553 3564 3554 3556 3533 3568 3553 3557 3571 3548 3569 3557 3552 3562

Tree=0
num_leaves=32
num_cat=0
split_feature=5 7 13 11 4 1 0 0 0 0 9 6 8 8 1 4 4 14 0 3 9 4 4 9 3 5 7 7 6 4 5
split_gain=1749.69 1104.9 543.496 361.714 317.516 272.835 217.343 215.885 175.671 155.675 153.063 151.753 149.715 146.426 130.775 120.568 199.532 120.266 118.274 115.92 111.778 119.053 111.26 109.085 107.541 105.24 103.928 104.965 89.0494 83.6494 103.233
threshold=178.85000000000002 220.10500000000005 1.0000000180025095e-35 1.0000000180025095e-35 12.315000000000003 5.8050000000000006 64.605000000000004 148.15000000000003 606.50500000000011 18.500000000000004 88.550000000000026 0.81500000000000006 269.36000000000007 376.18344280000002 5.5250000000000012 6.0450000000000008 4.6450000000000005 1.0000000180025095e-35 70.835000000000022 194.50000000000003 79.155000000000015 9.6950000000000021 12.455000000000002 54.485000000000007 183.50000000000003 395.63000000000005 200.03500000000003 201.05000000000004 2.5927508865000006 10.235000000000001 17.425000000000004
decision_type=2 2 2 2 2 2 2 2 2 2 2 2 2 2 2 2 2 2 2 2 2 2 2 2 2 2 2 2 2 2 2
left_child=1 2 8 5 6 11 15 -5 -1 -2 17 -3 -9 20 -6 16 -4 26 -15 -16 21 -7 -20 -11 -18 28 -8 -28 -25 -23 -31
right_child=9 3 4 7 14 13 10 12 -10 23 -12 -13 -14 18 19 -17 24 -19 22 -21 -22 29 -24 25 -26 -27 27 -29 -30 30 -32
leaf_value=1.4910438417484739 1.5130641990637448 1.506730436160745 1.4933112451295074 1.5103205034874965 1.4896628843204474 1.4962668179333387 1.491501232064671 1.5097911183695278 1.5111904594316823 1.500878562379391 1.5094670262735588 1.4942527269273784 1.49528247412292 1.5115048880160307 1.4968944001773927 1.4966274043941812 1.4897566675247678 1.4968339960114867 1.4975486985840001 1.5078000894250236 1.5116214724246972 1.5087468340138079 1.5063115339315665 1.5097295816371847 1.5079312722720308 1.5107650305719054 1.5113621202743481 1.4943838806755718 1.503430015779794 1.4964069377444615 1.5034604699035978
leaf_weight=2034.8412538766861 452.49433690309525 111.40318650007248 151.6340309381485 723.16133993864059 56.949951589107513 574.0796309709549 1177.6285409331322 109.55055606365204 44.221389710903168 288.73133039474487 71.425926446914673 779.26580280065536 202.7601033449173 241.24873131513596 123.0934134721756 496.67344689369202 35.259234488010406 1271.079972743988 221.09897822141647 468.14048361778259 85.960843622684479 153.96699374914169 420.38876539468765 337.71281015872955 424.81207716464996 626.26561307907104 54.317129254341125 110.47088086605072 668.73235100507736 336.55857884883881 541.07217818498611
leaf_count=4152 24 25 227 112 116 644 2276 22 13 117 9 1191 186 35 113 541 71 1497 184 203 25 62 137 72 192 100 5 151 275 344 274
internal_value=1.5 1.49832 1.49569 1.50213 1.49767 1.50058 1.49656 1.50732 1.49147 1.50779 1.49502 1.49581 1.50037 1.50223 1.50414 1.50029 1.50326 1.49463 1.50554 1.50553 1.50051 1.49992 1.50329 1.50654 1.50654 1.50755 1.49254 1.49998 1.50554 1.50195 1.50076
internal_weight=0 11021.1 6520.55 4500.52 4441.49 3465.04 3793.3 1035.47 2079.06 2373.94 2684.92 890.669 312.311 2574.37 648.184 1108.38 611.705 2613.5 882.736 591.234 1691.64 1605.68 641.488 1921.44 460.071 1632.71 1342.42 164.788 1006.45 1031.6 877.631
internal_count=13395 12807 9566 3241 5401 2921 4969 320 4165 588 3938 1216 208 1705 432 1031 490 3929 356 316 1349 1324 321 564 263 447 2432 156 347 680 618
is_linear=0
shrinkage=1


Tree=1
num_leaves=32
num_cat=0
split_feature=5 7 13 11 4 1 0 0 0 0 9 6 8 8 1 4 4 14 0 10 9 4 4 9 3 5 7 7 10 3 6
split_gain=1714.87 1082.91 532.68 354.516 311.197 267.406 213.018 211.589 172.175 152.577 150.018 148.733 146.735 143.512 128.173 118.169 195.561 117.873 115.921 113.916 109.554 116.684 109.046 106.914 105.401 103.145 101.86 102.876 87.732 156.741 87.2773
threshold=178.85000000000002 220.10500000000005 1.0000000180025095e-35 1.0000000180025095e-35 12.315000000000003 5.8050000000000006 64.605000000000004 148.15000000000003 606.50500000000011 18.500000000000004 88.550000000000026 0.81500000000000006 269.36000000000007 376.18344280000002 5.5250000000000012 6.0450000000000008 4.6450000000000005 1.0000000180025095e-35 70.835000000000022 3.6106667550000004 79.155000000000015 9.6950000000000021 12.455000000000002 54.485000000000007 183.50000000000003 395.63000000000005 200.03500000000003 201.05000000000004 3.8374834870000005 277.50000000000006 2.5927508865000006
decision_type=2 2 2 2 2 2 2 2 2 2 2 2 2 2 2 2 2 2 2 2 2 2 2 2 2 2 2 2 2 2 2
left_child=1 2 8 5 6 11 15 -5 -1 -2 17 -3 -9 20 -6 16 -4 26 -15 -16 21 -7 -20 -11 -18 30 -8 -28 -21 -30 -25
right_child=9 3 4 7 14 13 10 12 -10 23 -12 -13 -14 18 19 -17 24 -19 22 28 -22 -23 -24 25 -26 -27 27 -29 29 -31 -32
leaf_value=-0.0088665803434522846 0.012933573866652738 0.0066631480030086088 -0.0066218511650774862 0.010217314578544778 -0.010233728169593212 -0.003695834160401782 -0.0084137639197926061 0.0096932228054350689 0.011078571344262217 0.00086979301461868181 0.0093723723079282371 -0.0056897837323035194 -0.0046703346620072805 0.011389854735798923 -0.0017622823611406092 -0.0033388533373371106 -0.010140883259904176 -0.0031343277559499534 -0.0024267723772732164 0.012636434610430753 0.011505273314912049 0.0019287849567421844 0.0062484345995130579 0.0096323013512793019 0.0078519760388204157 0.010657396289782255 0.011248515190347542 -0.0055599418284456035 -0.0081013213236554946 0.0098184035493739611 0.0033957319121151247
leaf_weight=2034.8412538766861 452.49433690309525 111.40318650007248 151.6340309381485 723.16133993864059 56.949951589107513 574.0796309709549 1177.6285409331322 109.55055606365204 44.221389710903168 288.73133039474487 71.425926446914673 779.26580280065536 202.7601033449173 241.24873131513596 159.02199774980545 496.67344689369202 35.259234488010406 1271.079972743988 221.09897822141647 216.38077872991562 85.960843622684479 1031.5977507829666 420.38876539468765 337.71281015872955 424.81207716464996 626.26561307907104 54.317129254341125 110.47088086605072 74.587153851985931 141.24396675825119 668.73235100507736
leaf_count=4152 24 25 227 112 116 644 2276 22 13 117 9 1191 186 35 123 541 71 1497 184 27 25 680 137 72 192 100 5 151 110 56 275
internal_value=0 -0.00166061 -0.0042648 0.00211247 -0.00230929 0.000578196 -0.00340348 0.00724665 -0.00844235 0.00770941 -0.00492605 -0.0041447 0.000368032 0.0022122 0.00409416 0.000284773 0.00322697 -0.00531682 0.00548069 0.00547427 0.000506627 -8.21914e-05 0.00325839 0.00647914 0.00647303 0.0074711 -0.00738334 -1.95683e-05 0.00813679 0.00362569 0.00548841
internal_weight=0 11021.1 6520.55 4500.52 4441.49 3465.04 3793.3 1035.47 2079.06 2373.94 2684.92 890.669 312.311 2574.37 648.184 1108.38 611.705 2613.5 882.736 591.234 1691.64 1605.68 641.488 1921.44 460.071 1632.71 1342.42 164.788 432.212 215.831 1006.45
internal_count=13395 12807 9566 3241 5401 2921 4969 320 4165 588 3938 1216 208 1705 432 1031 490 3929 356 316 1349 1324 321 564 263 447 2432 156 193 166 347
is_linear=0
shrinkage=0.01


Tree=2
num_leaves=32
num_cat=0
split_feature=5 7 13 11 4 1 0 0 0 0 9 6 8 8 1 4 4 14 0 3 9 4 4 9 3 5 7 7 6 9 4
split_gain=1680.74 1061.36 522.08 347.461 305.005 262.084 208.779 207.378 168.749 149.54 147.032 145.773 143.815 140.656 125.622 115.817 191.669 115.527 113.614 111.894 107.374 114.362 106.876 104.787 103.304 101.093 99.8332 100.829 85.5405 82.2954 81.9848
threshold=178.85000000000002 220.10500000000005 1.0000000180025095e-35 1.0000000180025095e-35 12.315000000000003 5.8050000000000006 64.605000000000004 148.15000000000003 606.50500000000011 18.500000000000004 88.550000000000026 0.81500000000000006 269.36000000000007 376.18344280000002 5.5250000000000012 6.0450000000000008 4.6450000000000005 1.0000000180025095e-35 70.835000000000022 194.50000000000003 79.155000000000015 9.6950000000000021 12.455000000000002 54.485000000000007 183.50000000000003 395.63000000000005 200.03500000000003 201.05000000000004 2.5927508865000006 51.865000000000002 10.235000000000001
decision_type=2 2 2 2 2 2 2 2 2 2 2 2 2 2 2 2 2 2 2 2 2 2 2 2 2 2 2 2 2 2 2
left_child=1 2 8 5 6 11 15 -5 -1 -2 17 -3 -9 20 -6 16 -4 26 -15 -16 21 -7 -20 -11 -18 28 -8 -28 -25 -13 -23
right_child=9 3 4 7 14 13 10 12 -10 23 -12 29 -14 18 19 -17 24 -19 22 -21 -22 30 -24 25 -26 -27 27 -29 -30 -31 -32
leaf_value=-0.0087779146596347231 0.012804237494601545 0.0065965164185396189 -0.0065556328215479855 0.010115140787207013 -0.010131390685796019 -0.0036588758368427993 -0.0083296263660490467 0.0095962906929984524 0.010967785379913761 0.0008610950787129206 0.0092786489186473253 0.00012451633000567914 -0.004623631365861228 0.011275956989877467 -0.0030643374891440745 -0.0033054647756539201 -0.010039474117526679 -0.0031029843638685772 -0.0024025045238038442 0.0076502881794127424 0.01139022133728391 0.0086400937270892358 0.0061859502780608382 0.0095359789783024031 0.0077734561265906102 0.010550822772454329 0.011136029487247536 -0.0055043423501631066 0.0033617745016037148 -0.0074671565418176237 0.00072871629442210835
leaf_weight=2034.8412538766861 452.49433690309525 111.40318650007248 151.6340309381485 723.16133993864059 56.949951589107513 574.0796309709549 1177.6285409331322 109.55055606365204 44.221389710903168 288.73133039474487 71.425926446914673 188.28316897153854 202.7601033449173 241.24873131513596 123.0934134721756 496.67344689369202 35.259234488010406 1271.079972743988 221.09897822141647 468.14048361778259 85.960843622684479 153.96699374914169 420.38876539468765 337.71281015872955 424.81207716464996 626.26561307907104 54.317129254341125 110.47088086605072 668.73235100507736 590.98263382911682 877.63075703382492
leaf_count=4152 24 25 227 112 116 644 2276 22 13 117 9 170 186 35 113 541 71 1497 184 203 25 62 137 72 192 100 5 151 275 1021 618
internal_value=0 -0.001644 -0.00422215 0.00209134 -0.00228619 0.000572414 -0.00336945 0.00717419 -0.00835793 0.00763232 -0.00487679 -0.00410326 0.000364352 0.00219008 0.00405321 0.000281926 0.0031947 -0.00526365 0.00542588 0.00541953 0.000501561 -8.13694e-05 0.0032258 0.00641434 0.0064083 0.00739639 -0.0073095 -1.93727e-05 0.00543353 -0.00563289 0.0019095
internal_weight=0 11021.1 6520.55 4500.52 4441.49 3465.04 3793.3 1035.47 2079.06 2373.94 2684.92 890.669 312.311 2574.37 648.184 1108.38 611.705 2613.5 882.736 591.234 1691.64 1605.68 641.488 1921.44 460.071 1632.71 1342.42 164.788 1006.45 779.266 1031.6
internal_count=13395 12807 9566 3241 5401 2921 4969 320 4165 588 3938 1216 208 1705 432 1031 490 3929 356 316 1349 1324 321 564 263 447 2432 156 347 1191 680
is_linear=0
shrinkage=0.01


Tree=3
num_leaves=32
num_cat=0
split_feature=5 7 13 11 4 1 0 0 0 0 9 6 8 8 1 4 4 14 0 10 9 4 4 9 3 5 7 7 10 3 6
split_gain=1647.3 1040.24 511.691 340.546 298.935 256.869 204.624 203.251 165.391 146.565 144.106 142.872 140.953 137.857 123.122 113.513 187.855 113.228 111.353 110.794 105.237 112.086 104.749 102.701 101.248 99.081 97.8466 98.8224 85.8872 152.883 83.8382
threshold=178.85000000000002 220.10500000000005 1.0000000180025095e-35 1.0000000180025095e-35 12.315000000000003 5.8050000000000006 64.605000000000004 148.15000000000003 606.50500000000011 18.500000000000004 88.550000000000026 0.81500000000000006 269.36000000000007 376.18344280000002 5.5250000000000012 6.0450000000000008 4.6450000000000005 1.0000000180025095e-35 70.835000000000022 3.6106667550000004 79.155000000000015 9.6950000000000021 12.455000000000002 54.485000000000007 183.50000000000003 395.63000000000005 200.03500000000003 201.05000000000004 3.8374834870000005 277.50000000000006 2.5927508865000006
decision_type=2 2 2 2 2 2 2 2 2 2 2 2 2 2 2 2 2 2 2 2 2 2 2 2 2 2 2 2 2 2 2
left_child=1 2 8 5 6 11 15 -5 -1 -2 17 -3 -9 20 -6 16 -4 26 -15 -16 21 -7 -20 -11 -18 30 -8 -28 -21 -30 -25
right_child=9 3 4 7 14 13 10 12 -10 23 -12 -13 -14 18 19 -17 24 -19 22 28 -22 -23 -24 25 -26 -27 27 -29 29 -31 -32
leaf_value=-0.0086901359137915163 0.012676195000806991 0.0065305514801123959 -0.0064900762948652824 0.010013989706188949 -0.010030076953199374 -0.0036222869485251982 -0.0082463297691223441 0.0095003282896177019 0.010858106777642913 0.00085248413096040586 0.0091858620340766819 -0.0055765574215588601 -0.004577394794188362 0.011163196622680534 -0.0017713638329252721 -0.0032724101822368735 -0.0099390794678903115 -0.003071954558775868 -0.0023784792833873246 0.012443197247221368 0.011276318710510182 0.0018904022448041028 0.0061240909465843599 0.0094406187364096169 0.007695721481827256 0.010445313898407884 0.011024669375083049 -0.005449299121709065 -0.0080540910392291835 0.0096437163634064006 0.003328156697239939
leaf_weight=2034.8412538766861 452.49433690309525 111.40318650007248 151.6340309381485 723.16133993864059 56.949951589107513 574.0796309709549 1177.6285409331322 109.55055606365204 44.221389710903168 288.73133039474487 71.425926446914673 779.26580280065536 202.7601033449173 241.24873131513596 159.02199774980545 496.67344689369202 35.259234488010406 1271.079972743988 221.09897822141647 216.38077872991562 85.960843622684479 1031.5977507829666 420.38876539468765 337.71281015872955 424.81207716464996 626.26561307907104 54.317129254341125 110.47088086605072 74.587153851985931 141.24396675825119 668.73235100507736
leaf_count=4152 24 25 227 112 116 644 2276 22 13 117 9 1191 186 35 123 541 71 1497 184 27 25 680 137 72 192 100 5 151 110 56 275
internal_value=0 -0.00162756 -0.00417993 0.00207043 -0.00226333 0.00056669 -0.00333575 0.00710245 -0.00827435 0.00755599 -0.00482802 -0.00406222 0.000360709 0.00216818 0.00401268 0.000279106 0.00316276 -0.00521102 0.00537162 0.00536533 0.000496546 -8.05557e-05 0.00319354 0.0063502 0.00634421 0.00732243 -0.00723641 -1.91791e-05 0.00799111 0.00352769 0.00537919
internal_weight=0 11021.1 6520.55 4500.52 4441.49 3465.04 3793.3 1035.47 2079.06 2373.94 2684.92 890.669 312.311 2574.37 648.184 1108.38 611.705 2613.5 882.736 591.234 1691.64 1605.68 641.488 1921.44 460.071 1632.71 1342.42 164.788 432.212 215.831 1006.45
internal_count=13395 12807 9566 3241 5401 2921 4969 320 4165 588 3938 1216 208 1705 432 1031 490 3929 356 316 1349 1324 321 564 263 447 2432 156 193 166 347
is_linear=0
shrinkage=0.01


Tree=4
num_leaves=32
num_cat=0
split_feature=5 7 13 11 4 1 0 0 0 0 9 6 8 1 8 4 4 14 0 10 9 4 4 9 3 5 7 7 2 10 3
split_gain=1614.51 1019.54 501.508 333.77 292.986 251.757 200.552 199.222 162.099 143.648 141.239 140.029 135.114 120.672 117.259 111.254 184.117 110.975 109.137 108.589 103.143 109.855 102.665 100.658 99.233 97.1093 95.8994 96.8559 89.8613 84.178 149.84
threshold=178.85000000000002 220.10500000000005 1.0000000180025095e-35 1.0000000180025095e-35 12.315000000000003 5.8050000000000006 64.605000000000004 110.10000000000001 606.50500000000011 18.500000000000004 88.550000000000026 0.81500000000000006 376.18344280000002 5.5250000000000012 269.36000000000007 6.0450000000000008 4.6450000000000005 1.0000000180025095e-35 70.835000000000022 3.6106667550000004 79.155000000000015 9.6950000000000021 12.455000000000002 54.485000000000007 183.50000000000003 395.63000000000005 200.03500000000003 201.05000000000004 159.00500000000002 3.8374834870000005 277.50000000000006
decision_type=2 2 2 2 2 2 2 2 2 2 2 2 2 2 2 2 2 2 2 2 2 2 2 2 2 2 2 2 2 2 2
left_child=1 2 8 5 6 11 15 -5 -1 -2 17 -3 20 -6 -9 16 -4 26 -14 -15 21 -7 -20 -11 -18 -25 -8 -28 -16 -21 -31
right_child=9 3 4 7 13 12 10 14 -10 23 -12 -13 18 19 28 -17 24 -19 22 29 -22 -23 -24 25 -26 -27 27 -29 -30 30 -32
leaf_value=-0.0086032341114797312 0.012549433773953915 0.0064652460022019608 -0.0064251754332922953 0.011298755753084859 -0.009929776306801575 -0.003586063987153546 -0.0081638667264428248 0.0092470906346056956 0.010749526014754474 0.00084395924859060993 0.0090940032424973501 -0.0055207915281694532 0.011051565545228511 -0.0017536504092555039 -0.0028516231113542441 -0.0032396860336594995 -0.0098396889568721155 -0.0030412353268641939 -0.0023546946894117478 0.012318765450011742 0.011163555037163261 0.0018714981233547035 0.0060628499064711138 0.0053254025271040287 0.0076187647088817971 0.010340860723124172 0.010914423276861497 -0.0053948062080254149 0.013208389008559418 -0.0079735500485245796 0.0095472793558693276
leaf_weight=2034.8412538766861 452.49433690309525 111.40318650007248 151.6340309381485 531.97012203931808 56.949951589107513 574.0796309709549 1177.6285409331322 171.16924279928207 44.221389710903168 288.73133039474487 71.425926446914673 779.26580280065536 241.24873131513596 159.02199774980545 292.786616563797 496.67344689369202 35.259234488010406 1271.079972743988 221.09897822141647 216.38077872991562 85.960843622684479 1031.5977507829666 420.38876539468765 1006.4451611638069 424.81207716464996 626.26561307907104 54.317129254341125 110.47088086605072 39.546017944812775 74.587153851985931 141.24396675825119
leaf_count=4152 24 25 227 63 116 644 2276 33 13 117 9 1191 35 123 219 541 71 1497 184 27 25 680 137 347 192 100 5 151 5 110 56
internal_value=0 -0.00161129 -0.00413813 0.00204972 -0.0022407 0.000561023 -0.00330239 0.00703142 -0.0081916 0.00748043 -0.00477974 -0.0040216 0.0021465 0.00397256 0.00252281 0.000276315 0.00313113 -0.00515891 0.00531791 0.00531168 0.00049158 -7.97502e-05 0.00316161 0.0062867 0.00628077 0.0072492 -0.00716404 -1.89871e-05 -0.000940557 0.0079112 0.00349241
internal_weight=0 11021.1 6520.55 4500.52 4441.49 3465.04 3793.3 1035.47 2079.06 2373.94 2684.92 890.669 2574.37 648.184 503.502 1108.38 611.705 2613.5 882.736 591.234 1691.64 1605.68 641.488 1921.44 460.071 1632.71 1342.42 164.788 332.333 432.212 215.831
internal_count=13395 12807 9566 3241 5401 2921 4969 320 4165 588 3938 1216 1705 432 257 1031 490 3929 356 316 1349 1324 321 564 263 447 2432 156 224 193 166
is_linear=0
shrinkage=0.01


Tree=5
num_leaves=32
num_cat=0
split_feature=5 7 13 11 4 1 0 0 0 0 9 6 8 8 1 4 4 14 0 10 9 4 4 9 3 5 7 7 4 8 10
split_gain=1582.39 999.248 491.528 327.128 287.156 246.747 196.561 195.926 158.874 140.789 138.428 137.242 135.797 132.425 118.271 109.04 180.453 108.767 106.965 106.428 101.09 107.669 100.621 98.6546 97.2582 95.1768 93.991 94.9284 83.5364 83.7158 82.5028
threshold=178.85000000000002 220.10500000000005 1.0000000180025095e-35 1.0000000180025095e-35 12.315000000000003 5.8050000000000006 64.605000000000004 148.15000000000003 606.50500000000011 18.500000000000004 88.550000000000026 0.81500000000000006 269.36000000000007 376.18344280000002 5.5250000000000012 6.0450000000000008 4.6450000000000005 1.0000000180025095e-35 70.835000000000022 3.6106667550000004 79.155000000000015 9.6950000000000021 12.455000000000002 54.485000000000007 183.50000000000003 395.63000000000005 200.03500000000003 201.05000000000004 9.0150000000000023 264.35000000000008 3.8374834870000005
decision_type=2 2 2 2 2 2 2 2 2 2 2 2 2 2 2 2 2 2 2 2 2 2 2 2 2 2 2 2 2 2 2
left_child=1 2 8 5 6 11 15 -5 -1 -2 17 -3 -9 20 -6 16 -4 26 -15 -16 21 -7 -20 -11 -18 28 -8 -28 29 -25 -21
right_child=9 3 4 7 14 13 10 12 -10 23 -12 -13 -14 18 19 -17 24 -19 22 30 -22 -23 -24 25 -26 -27 27 -29 -30 -31 -32
leaf_value=-0.0085172017720990239 0.012423938103246837 0.0064005933985229451 -0.0063609236605631225 0.0098197013159336127 -0.0098304785892089595 -0.0035502032513152317 -0.0080822284265964946 0.0093128534217165135 0.01064203001691817 0.00083551959553627585 0.0090030631808650195 -0.0054655841031045075 -0.0045049561651362363 0.010941048582654933 -0.0017361138913133452 -0.0032072892865261811 -0.0097412914358286796 -0.0030108224754380516 -0.0023311476362747581 0.012195576517286106 0.011051919212554707 0.0018527833877568472 0.0060022213296659164 0.00167048415329937 0.0075425763369464608 0.010237452224420646 0.010805278803554797 -0.0053408582028138078 0.0099519959478817626 0.009773123746251831 0.0034574876807742143
leaf_weight=2034.8412538766861 452.49433690309525 111.40318650007248 151.6340309381485 723.16133993864059 56.949951589107513 574.0796309709549 1177.6285409331322 109.55055606365204 44.221389710903168 288.73133039474487 71.425926446914673 779.26580280065536 202.7601033449173 241.24873131513596 159.02199774980545 496.67344689369202 35.259234488010406 1271.079972743988 221.09897822141647 216.38077872991562 85.960843622684479 1031.5977507829666 420.38876539468765 565.18136584758759 424.81207716464996 626.26561307907104 54.317129254341125 110.47088086605072 276.60031592845917 164.66347938776016 215.83112061023712
leaf_count=4152 24 25 227 112 116 644 2276 22 13 117 9 1191 186 35 123 541 71 1497 184 27 25 680 137 257 192 100 5 151 57 33 166
internal_value=0 -0.00159517 -0.00409675 0.00202923 -0.00221829 0.000555413 -0.00326937 0.00696111 -0.00810969 0.00740563 -0.00473194 -0.00398139 0.000341976 0.00212503 0.00393283 0.000273552 0.00309982 -0.00510732 0.00526473 0.00525856 0.000486664 -7.89525e-05 0.00312999 0.00622383 0.00621796 0.00717671 -0.0070924 -1.87974e-05 0.00527215 0.00349856 0.00783209
internal_weight=0 11021.1 6520.55 4500.52 4441.49 3465.04 3793.3 1035.47 2079.06 2373.94 2684.92 890.669 312.311 2574.37 648.184 1108.38 611.705 2613.5 882.736 591.234 1691.64 1605.68 641.488 1921.44 460.071 1632.71 1342.42 164.788 1006.45 729.845 432.212
internal_count=13395 12807 9566 3241 5401 2921 4969 320 4165 588 3938 1216 208 1705 432 1031 490 3929 356 316 1349 1324 321 564 263 447 2432 156 347 290 193
is_linear=0
shrinkage=0.01


Tree=6
num_leaves=32
num_cat=0
split_feature=5 7 13 11 4 1 0 0 0 0 9 6 8 1 8 4 4 14 3 0 9 4 4 9 3 5 7 7 2 4 8
split_gain=1550.9 979.363 481.746 320.618 281.441 241.837 192.649 192.624 155.712 137.988 135.673 134.511 129.79 115.917 113.016 106.87 176.862 106.602 105.454 104.836 99.0787 105.527 98.6191 96.6914 95.3228 93.2828 92.1206 93.0393 87.0833 81.874 82.0499
threshold=178.85000000000002 220.10500000000005 1.0000000180025095e-35 1.0000000180025095e-35 12.315000000000003 5.8050000000000006 64.605000000000004 110.10000000000001 606.50500000000011 18.500000000000004 88.550000000000026 0.81500000000000006 376.18344280000002 5.5250000000000012 269.36000000000007 6.0450000000000008 4.6450000000000005 1.0000000180025095e-35 194.50000000000003 70.835000000000022 79.155000000000015 9.6950000000000021 12.455000000000002 54.485000000000007 183.50000000000003 395.63000000000005 200.03500000000003 201.05000000000004 159.00500000000002 9.0150000000000023 264.35000000000008
decision_type=2 2 2 2 2 2 2 2 2 2 2 2 2 2 2 2 2 2 2 2 2 2 2 2 2 2 2 2 2 2 2
left_child=1 2 8 5 6 11 15 -5 -1 -2 17 -3 20 -6 -9 16 -4 26 -15 -14 21 -7 -21 -11 -18 29 -8 -28 -16 30 -25
right_child=9 3 4 7 13 12 10 14 -10 23 -12 -13 19 18 28 -17 24 -19 -20 22 -22 -23 -24 25 -26 -27 27 -29 -30 -31 -32
leaf_value=-0.008432029605094097 0.012299699866545664 0.0063365874894168598 -0.0062973147581167057 0.011087570519867126 -0.0097321740616736572 -0.0035147013282351481 -0.0080014057382880484 0.0090596662332178817 0.010535611269763765 0.00082716458345377859 0.0089130328199337472 -0.0054109281320129134 0.010831638364945693 -0.0030301224374063096 -0.0028232470353963392 -0.0031752163010029632 -0.0096438785453905312 -0.0029807146023992882 0.0073715891548459854 -0.002307836249022849 0.010941400672842607 0.0018342553085324825 0.005942199189615173 0.0016537795195036378 0.0074671504730741871 0.010135078117718719 0.0106972261119759 -0.0052874492411577731 0.012986575486442661 0.0098524754273958785 0.0096753924163399951
leaf_weight=2034.8412538766861 452.49433690309525 111.40318650007248 151.6340309381485 531.97012203931808 56.949951589107513 574.0796309709549 1177.6285409331322 171.16924279928207 44.221389710903168 288.73133039474487 71.425926446914673 779.26580280065536 241.24873131513596 123.0934134721756 292.786616563797 496.67344689369202 35.259234488010406 1271.079972743988 468.14048361778259 221.09897822141647 85.960843622684479 1031.5977507829666 420.38876539468765 565.18136584758759 424.81207716464996 626.26561307907104 54.317129254341125 110.47088086605072 39.546017944812775 276.60031592845917 164.66347938776016
leaf_count=4152 24 25 227 63 116 644 2276 33 13 117 9 1191 35 113 219 541 71 1497 203 184 25 680 137 257 192 100 5 151 5 57 33
internal_value=0 -0.00157922 -0.00405578 0.00200893 -0.00219611 0.000549859 -0.00323668 0.0068915 -0.00802859 0.00733157 -0.00468463 -0.00394157 0.00210378 0.0038935 0.00245817 0.000270816 0.00306882 -0.00505624 0.00520598 0.00521208 0.000481798 -7.81631e-05 0.00309869 0.00616159 0.00615578 0.00710494 -0.00702148 -1.86091e-05 -0.000941953 0.00521943 0.00346357
internal_weight=0 11021.1 6520.55 4500.52 4441.49 3465.04 3793.3 1035.47 2079.06 2373.94 2684.92 890.669 2574.37 648.184 503.502 1108.38 611.705 2613.5 591.234 882.736 1691.64 1605.68 641.488 1921.44 460.071 1632.71 1342.42 164.788 332.333 1006.45 729.845
internal_count=13395 12807 9566 3241 5401 2921 4969 320 4165 588 3938 1216 1705 432 257 1031 490 3929 316 356 1349 1324 321 564 263 447 2432 156 224 347 290
is_linear=0
shrinkage=0.01


Tree=7
num_leaves=32
num_cat=0
split_feature=5 7 13 11 4 1 0 0 0 0 9 6 8 8 1 4 4 14 10 0 9 4 4 9 3 5 7 7 6 10 3
split_gain=1520.03 959.874 472.16 314.237 275.841 237.024 188.859 188.816 152.613 135.242 132.973 131.835 130.827 127.207 113.611 104.743 173.342 104.481 103.507 102.75 97.107 103.427 96.6566 94.7673 93.4259 91.4265 90.2874 91.1879 80.8547 80.7679 146.157
threshold=178.85000000000002 220.10500000000005 1.0000000180025095e-35 1.0000000180025095e-35 12.315000000000003 5.8050000000000006 148.15000000000003 64.605000000000004 606.50500000000011 18.500000000000004 88.550000000000026 0.81500000000000006 269.36000000000007 376.18344280000002 5.5250000000000012 6.0450000000000008 4.6450000000000005 1.0000000180025095e-35 3.6106667550000004 70.835000000000022 79.155000000000015 9.6950000000000021 12.455000000000002 54.485000000000007 183.50000000000003 395.63000000000005 200.03500000000003 201.05000000000004 2.5927508865000006 3.8374834870000005 277.50000000000006
decision_type=2 2 2 2 2 2 2 2 2 2 2 2 2 2 2 2 2 2 2 2 2 2 2 2 2 2 2 2 2 2 2
left_child=1 2 8 5 7 11 -5 15 -1 -2 17 -3 -8 20 -6 16 -4 26 -16 -15 21 -7 -21 -11 -18 28 -9 -28 -25 -20 -31
right_child=9 3 4 6 14 13 12 10 -10 23 -12 -13 -14 19 18 -17 24 -19 29 22 -22 -23 -24 25 -26 -27 27 -29 -30 30 -32
leaf_value=-0.0083477093612415662 0.012176701626803765 0.0062732215762409107 -0.0062343414539315738 0.0096291469338902463 -0.0096348521481562071 -0.003479554271470283 0.0091291286762164164 -0.0079213915464360751 0.01043025400996213 0.00081889302326968642 0.0088239021290624792 -0.0053568187242386545 -0.0044334971553833006 0.01072332293899041 -0.0017441247175278246 -0.0031434641501017118 -0.0095474401342909975 -0.0029509070991122462 0.012009253865739629 -0.0022847578628227483 0.010831986507049833 0.0018159130198638995 0.005882777288914863 0.0091557360318836861 0.0073924789597425477 0.01003372721237661 0.010590253954335797 -0.0052345748016221685 0.0031530208425098035 -0.0079606331356337472 0.0093435155986652599
leaf_weight=2034.8412538766861 452.49433690309525 111.40318650007248 151.6340309381485 723.16133993864059 56.949951589107513 574.0796309709549 109.55055606365204 1177.6285409331322 44.221389710903168 288.73133039474487 71.425926446914673 779.26580280065536 202.7601033449173 241.24873131513596 159.02199774980545 496.67344689369202 35.259234488010406 1271.079972743988 216.38077872991562 221.09897822141647 85.960843622684479 1031.5977507829666 420.38876539468765 337.71281015872955 424.81207716464996 626.26561307907104 54.317129254341125 110.47088086605072 668.73235100507736 74.587153851985931 141.24396675825119
leaf_count=4152 24 25 227 112 116 644 22 2276 13 117 9 1191 186 35 123 541 71 1497 27 184 25 680 137 72 192 100 5 151 275 110 56
internal_value=0 -0.00156343 -0.00401523 0.00198884 -0.00217415 0.00054436 0.00682258 -0.00320431 -0.0079483 0.00725826 -0.00463778 -0.00390216 0.000323924 0.00208274 0.00385457 0.000268108 0.00303813 -0.00500568 0.00515392 0.00515996 0.00047698 -7.73813e-05 0.00306771 0.00609998 0.00609423 0.00703389 -0.00695126 -1.8423e-05 0.00516723 0.00769189 0.00336353
internal_weight=0 11021.1 6520.55 4500.52 4441.49 3465.04 1035.47 3793.3 2079.06 2373.94 2684.92 890.669 312.311 2574.37 648.184 1108.38 611.705 2613.5 591.234 882.736 1691.64 1605.68 641.488 1921.44 460.071 1632.71 1342.42 164.788 1006.45 432.212 215.831
internal_count=13395 12807 9566 3241 5401 2921 320 4969 4165 588 3938 1216 208 1705 432 1031 490 3929 316 356 1349 1324 321 564 263 447 2432 156 347 193 166
is_linear=0
shrinkage=0.01


Tree=8
num_leaves=32
num_cat=0
split_feature=5 7 13 11 4 1 0 0 0 0 9 6 8 1 8 4 4 14 3 0 9 4 4 9 3 5 7 7 2 9 4
split_gain=1489.78 940.772 462.764 307.984 270.351 232.308 186.249 185.058 149.576 132.55 130.327 129.211 124.676 111.35 108.926 102.659 169.893 102.401 101.782 100.705 95.1746 101.369 94.7331 92.8814 91.5667 89.6071 88.4907 89.3732 84.3939 80.6577 80.3533
threshold=178.85000000000002 220.10500000000005 1.0000000180025095e-35 1.0000000180025095e-35 12.315000000000003 5.8050000000000006 110.10000000000001 64.605000000000004 606.50500000000011 18.500000000000004 88.550000000000026 0.81500000000000006 376.18344280000002 5.5250000000000012 269.36000000000007 6.0450000000000008 4.6450000000000005 1.0000000180025095e-35 194.50000000000003 70.835000000000022 79.155000000000015 9.6950000000000021 12.455000000000002 54.485000000000007 183.50000000000003 395.63000000000005 200.03500000000003 201.05000000000004 159.00500000000002 51.865000000000002 10.235000000000001
decision_type=2 2 2 2 2 2 2 2 2 2 2 2 2 2 2 2 2 2 2 2 2 2 2 2 2 2 2 2 2 2 2
left_child=1 2 8 5 7 11 -5 15 -1 -2 17 -3 20 -6 -8 16 -4 26 -15 -14 21 -7 -21 -11 -18 -25 -9 -28 -16 -13 -23
right_child=9 3 4 6 13 12 14 10 -10 23 -12 29 19 18 28 -17 24 -19 -20 22 -22 30 -24 25 -26 -27 27 -29 -30 -31 -32
leaf_value=-0.0082642320877233198 0.012054935340915816 0.0062104891315636207 -0.0061719977770884771 0.010880403807640104 -0.0095385034186600132 -0.0034447588229469272 0.0088759785968046886 -0.0078421776616742472 0.010325951504907106 0.00081070394886183607 0.0087356635310281896 0.00039657785951473918 0.010616089399234708 -0.0029890892881029398 -0.0027950424914511694 -0.0031120294220031287 -0.0094519655525750392 -0.0029213980973632017 0.0072299604376062313 -0.0022619101821706308 0.010723667198357854 0.008461044869631798 0.0058239495953400092 0.005115560274568394 0.0073185540884155584 0.0099333902431368269 0.010484351148686214 -0.005182228954544431 0.01276873151339894 -0.0071191784840717743 0.00062878064717810658
leaf_weight=2034.8412538766861 452.49433690309525 111.40318650007248 151.6340309381485 531.97012203931808 56.949951589107513 574.0796309709549 171.16924279928207 1177.6285409331322 44.221389710903168 288.73133039474487 71.425926446914673 188.28316897153854 241.24873131513596 123.0934134721756 292.786616563797 496.67344689369202 35.259234488010406 1271.079972743988 468.14048361778259 221.09897822141647 85.960843622684479 153.96699374914169 420.38876539468765 1006.4451611638069 424.81207716464996 626.26561307907104 54.317129254341125 110.47088086605072 39.546017944812775 590.98263382911682 877.63075703382492
leaf_count=4152 24 25 227 63 116 644 33 2276 13 117 9 170 35 113 219 541 71 1497 203 184 25 62 137 347 192 100 5 151 5 1021 618
internal_value=0 -0.00154779 -0.00397507 0.00196896 -0.00215241 0.000538917 0.00675436 -0.00317227 -0.00786882 0.00718568 -0.0045914 -0.00386313 0.00206192 0.00381602 0.00239502 0.000265427 0.00300775 -0.00495562 0.00510238 0.00510836 0.00047221 -7.66075e-05 0.00303703 0.00603898 0.00603328 0.00696356 -0.00688175 -1.82388e-05 -0.000943027 -0.00530325 0.00179775
internal_weight=0 11021.1 6520.55 4500.52 4441.49 3465.04 1035.47 3793.3 2079.06 2373.94 2684.92 890.669 2574.37 648.184 503.502 1108.38 611.705 2613.5 591.234 882.736 1691.64 1605.68 641.488 1921.44 460.071 1632.71 1342.42 164.788 332.333 779.266 1031.6
internal_count=13395 12807 9566 3241 5401 2921 320 4969 4165 588 3938 1216 1705 432 257 1031 490 3929 316 356 1349 1324 321 564 263 447 2432 156 224 1191 680
is_linear=0
shrinkage=0.01


Tree=9
num_leaves=32
num_cat=0
split_feature=5 7 13 11 4 1 0 0 0 0 14 6 8 8 1 8 5 10 4 4 0 5 9 4 9 9 3 5 7 7 2
split_gain=1460.14 922.051 453.555 301.855 264.971 227.685 182.542 181.375 146.6 129.913 127.757 126.64 122.195 110.687 109.134 106.759 104.279 100.67 100.616 166.512 99.6765 97.8865 93.2806 99.3513 93.1223 91.033 89.7445 87.8239 83.1048 88.0186 82.7144
threshold=178.85000000000002 220.10500000000005 1.0000000180025095e-35 1.0000000180025095e-35 12.315000000000003 5.8050000000000006 110.10000000000001 64.605000000000004 606.50500000000011 18.500000000000004 1.0000000180025095e-35 0.81500000000000006 376.18344280000002 304.05000000000007 5.5250000000000012 269.36000000000007 11.705000000000002 3.6106667550000004 6.0450000000000008 4.6450000000000005 162.29500000000004 10.305000000000001 79.155000000000015 9.6950000000000021 88.550000000000026 54.485000000000007 183.50000000000003 395.63000000000005 200.03500000000003 201.05000000000004 159.00500000000002
decision_type=2 2 2 2 2 2 2 2 2 2 2 2 2 2 2 2 2 2 2 2 2 2 2 2 2 2 2 2 2 2 2
left_child=1 2 8 5 7 11 -5 18 -1 -2 28 -3 22 -12 -6 -8 21 -16 19 -4 -14 24 23 -7 -15 -11 -21 -27 -9 -30 -17
right_child=9 3 4 6 14 12 15 10 -10 25 13 -13 20 16 17 30 -18 -19 -20 26 -22 -23 -24 -25 -26 27 -28 -29 29 -31 -32
leaf_value=-0.0081815902766974192 0.011934386026523492 0.0061483845268129264 -0.0061102778903161315 0.010771599623602553 -0.0094431183123616751 -0.0034103111410867738 0.0087872191193252101 -0.0076170422327848869 0.010222692749247487 0.00080259706915496002 -0.0057580793069668913 -0.0052502181459944562 0.0068437301229720884 -0.0034596901986249308 -0.0017514878451990493 -0.0027670919038073178 -0.0040446187864962577 0.0075542995744991076 -0.0030809091129141422 -0.0093574458492090146 -0.0012634907060842494 0.0087845897303414928 0.010616430518781623 0.0017797761099289172 0.013457210033490095 0.0050644048354201686 0.0072453690709794417 0.0098340554397436334 0.010379507401928525 -0.0051606381349269996 0.012641043677067438
leaf_weight=2034.8412538766861 452.49433690309525 111.40318650007248 151.6340309381485 531.97012203931808 56.949951589107513 574.0796309709549 171.16924279928207 1195.0506861209869 44.221389710903168 288.73133039474487 551.46889573335648 779.26580280065536 688.22237998247147 207.07880371809006 159.02199774980545 292.786616563797 339.55264794826508 432.21189934015274 496.67344689369202 35.259234488010406 194.51409494876862 188.064084649086 85.960843622684479 1031.5977507829666 38.605973958969116 1006.4451611638069 424.81207716464996 626.26561307907104 54.317129254341125 110.78422886133194 39.546017944812775
leaf_count=4152 24 25 227 63 116 644 33 2281 13 117 811 1191 243 221 123 219 402 193 541 71 113 64 25 680 2 347 192 100 5 152 5
internal_value=0 -0.00153232 -0.00393532 0.00194927 -0.00213088 0.000533527 0.00668681 -0.00314054 -0.00779013 0.00711382 -0.00454549 -0.0038245 0.0020413 -0.00233519 0.00377786 0.00237107 0.000105787 0.00505136 0.000262773 0.00297767 0.00505728 0.00335486 0.000467488 -7.58416e-05 -0.000801433 0.00597859 0.00597295 0.00689392 -0.00669828 -4.80449e-05 -0.000933596
internal_weight=0 11021.1 6520.55 4500.52 4441.49 3465.04 1035.47 3793.3 2079.06 2373.94 2684.92 890.669 2574.37 1324.77 648.184 503.502 773.302 591.234 1108.38 611.705 882.736 433.749 1691.64 1605.68 245.685 1921.44 460.071 1632.71 1360.15 165.101 332.333
internal_count=13395 12807 9566 3241 5401 2921 320 4969 4165 588 3938 1216 1705 1500 432 257 689 316 1031 490 356 287 1349 1324 223 564 263 447 2438 157 224
is_linear=0
shrinkage=0.01


Tree=10
num_leaves=32
num_cat=0
split_feature=5 7 13 11 4 1 0 0 0 0 9 6 8 8 1 3 4 4 14 0 4 9 4 9 3 5 7 7 8 4 8
split_gain=1431.08 903.702 444.529 295.848 259.699 223.154 179.037 177.766 143.682 127.327 125.981 124.12 123.893 119.763 106.962 98.9902 98.6137 163.198 98.381 98.0557 92.6988 91.4243 97.3742 89.2215 87.9586 86.0762 85.0408 85.8482 80.1322 80.037 79.9804
threshold=178.85000000000002 220.10500000000005 1.0000000180025095e-35 1.0000000180025095e-35 12.315000000000003 5.8050000000000006 148.15000000000003 64.605000000000004 606.50500000000011 18.500000000000004 88.550000000000026 0.81500000000000006 269.36000000000007 376.18344280000002 5.5250000000000012 194.50000000000003 6.0450000000000008 4.6450000000000005 1.0000000180025095e-35 70.835000000000022 12.455000000000002 79.155000000000015 9.6950000000000021 54.485000000000007 183.50000000000003 395.63000000000005 200.03500000000003 201.05000000000004 543.61570245000019 9.0150000000000023 264.35000000000008
decision_type=2 2 2 2 2 2 2 2 2 2 2 2 2 2 2 2 2 2 2 2 2 2 2 2 2 2 2 2 2 2 2
left_child=1 2 8 5 7 11 -5 16 -1 -2 18 -3 -8 21 -6 -16 17 -4 26 -15 -21 22 -7 -11 -19 29 -9 -28 -22 30 -25
right_child=9 3 4 6 14 13 12 10 -10 23 -12 -13 -14 19 15 -17 -18 24 -20 20 28 -23 -24 25 -26 -27 27 -29 -30 -31 -32
leaf_value=-0.0080997743739802414 0.011815042482423691 0.0060869007583758761 -0.0060491751112164297 0.0093525590285623312 -0.0093486876870835841 -0.0033762079771604918 0.0088612051937496904 -0.0076875857116232163 0.010120466232181151 0.00079457098451053991 0.0086029173263315259 -0.005197715955485958 -0.0043371112289687479 0.01044149121772207 -0.0029788668205579212 0.0070990371664524966 -0.0030501001614379763 -0.00926387157447091 -0.0028642385390903768 -0.002278931783803821 0.007641632294977661 0.010510266202638199 0.0017619783226644262 0.0014908920851102905 0.0071729146891812961 0.0097357147256715952 0.010275713134238543 -0.0050788006993635025 -0.0041979098709577483 0.0095945394446653141 0.0094106954689906468
leaf_weight=2034.8412538766861 452.49433690309525 111.40318650007248 151.6340309381485 723.16133993864059 56.949951589107513 574.0796309709549 109.55055606365204 1177.6285409331322 44.221389710903168 288.73133039474487 71.425926446914673 779.26580280065536 202.7601033449173 241.24873131513596 123.0934134721756 468.14048361778259 496.67344689369202 35.259234488010406 1271.079972743988 221.09897822141647 352.14421766996384 85.960843622684479 1031.5977507829666 565.18136584758759 424.81207716464996 626.26561307907104 54.317129254341125 110.47088086605072 68.244547724723816 276.60031592845917 164.66347938776016
leaf_count=4152 24 25 227 112 116 644 22 2276 13 117 9 1191 186 35 113 203 541 71 1497 184 84 25 680 257 192 100 5 151 53 57 33
internal_value=0 -0.00151699 -0.00389597 0.00192977 -0.00210957 0.000528192 0.00661994 -0.00310914 -0.00771223 0.00704268 -0.00450003 -0.00378626 0.000292519 0.00202088 0.00374008 0.00500084 0.000260145 0.00294789 -0.00485813 0.0050067 0.0029628 0.000462813 -7.50832e-05 0.0059188 0.00591322 0.00682498 -0.00674607 -1.76733e-05 0.00571964 0.00501376 0.00327771
internal_weight=0 11021.1 6520.55 4500.52 4441.49 3465.04 1035.47 3793.3 2079.06 2373.94 2684.92 890.669 312.311 2574.37 648.184 591.234 1108.38 611.705 2613.5 882.736 641.488 1691.64 1605.68 1921.44 460.071 1632.71 1342.42 164.788 420.389 1006.45 729.845
internal_count=13395 12807 9566 3241 5401 2921 320 4969 4165 588 3938 1216 208 1705 432 316 1031 490 3929 356 321 1349 1324 564 263 447 2432 156 137 347 290
is_linear=0
shrinkage=0.01


Tree=11
num_leaves=32
num_cat=0
split_feature=5 7 13 11 4 1 0 0 0 0 9 6 8 1 8 10 0 4 4 14 9 4 9 3 5 7 7 13 2 9 10
split_gain=1402.6 885.719 435.683 289.961 254.531 218.713 176.5 174.229 140.823 124.793 123.474 121.65 117.38 104.834 102.894 97.9107 96.7475 96.6513 159.951 96.4231 89.605 95.4365 87.446 86.2082 84.3633 83.3485 84.1398 80.3129 80.1609 79.0526 78.9808
threshold=178.85000000000002 220.10500000000005 1.0000000180025095e-35 1.0000000180025095e-35 12.315000000000003 5.8050000000000006 110.10000000000001 64.605000000000004 606.50500000000011 18.500000000000004 88.550000000000026 0.81500000000000006 376.18344280000002 5.5250000000000012 269.36000000000007 3.6106667550000004 162.29500000000004 6.0450000000000008 4.6450000000000005 1.0000000180025095e-35 79.155000000000015 9.6950000000000021 54.485000000000007 183.50000000000003 395.63000000000005 200.03500000000003 201.05000000000004 1.0000000180025095e-35 159.00500000000002 51.865000000000002 3.8374834870000005
decision_type=2 2 2 2 2 2 2 2 2 2 2 2 2 2 2 2 2 2 2 2 2 2 2 2 2 2 2 2 2 2 2
left_child=1 2 8 5 7 11 -5 17 -1 -2 19 -3 20 -6 -8 -15 27 18 -4 25 21 -7 -11 -20 -24 -9 -27 -14 -16 -13 -17
right_child=9 3 4 6 13 12 14 10 -10 22 -12 29 16 15 28 30 -18 -19 23 -21 -22 -23 24 -25 -26 26 -28 -29 -30 -31 -32
leaf_value=-0.008018776517003284 0.011696891397843519 0.0060260317509258756 -0.0059886832251591316 0.010570357959831139 -0.009255200370216014 -0.0033424458540205833 0.0086089657881576725 -0.0076107093850609235 0.010019261009011007 0.0007866251189711321 0.0085168883066154607 0.00049709171315182727 -0.0032118927257828527 -0.001758124378439304 -0.0027392362665498468 0.011688569511173729 -0.0012705704142722052 -0.0030195993465676001 -0.009171232577094058 -0.0028355962365756654 0.010405164088253585 0.0017443588051574393 0.0049636232143360996 0.0071011863142515178 0.009638357899144117 0.010172955824906755 -0.0050280125460437086 0.0078920076803694426 0.012429199346043323 -0.0069435071796408602 0.0031390273288846126
leaf_weight=2034.8412538766861 452.49433690309525 111.40318650007248 151.6340309381485 531.97012203931808 56.949951589107513 574.0796309709549 171.16924279928207 1177.6285409331322 44.221389710903168 288.73133039474487 71.425926446914673 188.28316897153854 72.849112331867218 159.02199774980545 292.786616563797 216.38077872991562 194.51409494876862 496.67344689369202 35.259234488010406 1271.079972743988 85.960843622684479 1031.5977507829666 1006.4451611638069 424.81207716464996 626.26561307907104 54.317129254341125 110.47088086605072 615.37326765060425 39.546017944812775 590.98263382911682 215.83112061023712
leaf_count=4152 24 25 227 63 116 644 33 2276 13 117 9 170 69 123 219 27 113 541 71 1497 25 680 347 192 100 5 151 174 5 1021 166
internal_value=0 -0.00150182 -0.00385701 0.00191048 -0.00208848 0.00052291 0.00655374 -0.00307805 -0.00763511 0.00697225 -0.00445503 -0.00374839 0.00200067 0.00370268 0.00231003 0.00495083 0.00495664 0.000257544 0.00291842 -0.00480955 0.000458185 -7.43322e-05 0.00585961 0.00585409 0.00675673 -0.00667861 -1.74965e-05 0.00671665 -0.000934264 -0.00514574 0.00741923
internal_weight=0 11021.1 6520.55 4500.52 4441.49 3465.04 1035.47 3793.3 2079.06 2373.94 2684.92 890.669 2574.37 648.184 503.502 591.234 882.736 1108.38 611.705 2613.5 1691.64 1605.68 1921.44 460.071 1632.71 1342.42 164.788 688.222 332.333 779.266 432.212
internal_count=13395 12807 9566 3241 5401 2921 320 4969 4165 588 3938 1216 1705 432 257 316 356 1031 490 3929 1349 1324 564 263 447 2432 156 243 224 1191 193
is_linear=0
shrinkage=0.01


Tree=12
num_leaves=32
num_cat=0
split_feature=5 7 13 11 4 1 0 0 0 0 9 6 8 1 8 3 0 4 4 14 8 9 4 4 9 3 5 7 7 4 5
split_gain=1374.69 868.093 427.013 284.191 249.465 214.361 172.988 170.761 138.021 122.31 121.017 119.229 115.044 102.747 100.846 96.1866 95.2112 94.7279 156.768 94.5043 91.0438 87.8219 93.5373 86.2944 85.7058 84.4927 82.6844 81.6899 82.4654 78.7543 101.178
threshold=178.85000000000002 220.10500000000005 1.0000000180025095e-35 1.0000000180025095e-35 12.315000000000003 5.8050000000000006 110.10000000000001 64.605000000000004 606.50500000000011 18.500000000000004 88.550000000000026 0.81500000000000006 376.18344280000002 5.5250000000000012 269.36000000000007 194.50000000000003 70.835000000000022 6.0450000000000008 4.6450000000000005 1.0000000180025095e-35 526.95000000000016 79.155000000000015 9.6950000000000021 12.455000000000002 54.485000000000007 183.50000000000003 395.63000000000005 200.03500000000003 201.05000000000004 10.235000000000001 17.425000000000004
decision_type=2 2 2 2 2 2 2 2 2 2 2 2 2 2 2 2 2 2 2 2 2 2 2 2 2 2 2 2 2 2 2
left_child=1 2 8 5 7 11 -5 17 -1 -2 19 -3 21 -6 -8 -15 -14 18 -4 27 23 22 -7 -18 -11 -20 -26 -9 -29 -24 -31
right_child=9 3 4 6 13 12 14 10 -10 24 -12 -13 16 15 -16 -17 20 -19 25 -21 -22 -23 29 -25 26 -27 -28 28 -30 30 -32
leaf_value=-0.0079385883238502312 0.011579922263792761 0.0059657712552498403 -0.0059287963359106154 0.01046465406255136 -0.0091626484336541757 -0.003309021553047384 0.0085228763473219546 -0.0075346026326886684 0.0099190678198763319 0.00077875902663419958 0.0084317194894744842 -0.0050942814704609696 0.010262448549571401 -0.0029645713923189083 -0.00092492118924724601 0.0069695942168969292 -0.00090681954580695682 -0.0029894031844790859 -0.0090795204047331834 -0.0028072401925623102 -0.0043778534151467574 0.010301111881770401 0.0083235724727935331 0.0078116623219101058 0.0049139870776157063 0.0070301741204024252 0.009541974376734038 0.010071225784374442 -0.0049777325470000081 -0.0037354881801667955 0.0032475089302244175
leaf_weight=2034.8412538766861 452.49433690309525 111.40318650007248 151.6340309381485 531.97012203931808 56.949951589107513 574.0796309709549 171.16924279928207 1177.6285409331322 44.221389710903168 288.73133039474487 71.425926446914673 779.26580280065536 241.24873131513596 123.0934134721756 332.33263450860977 468.14048361778259 172.08211916685104 496.67344689369202 35.259234488010406 1271.079972743988 135.76784586906433 85.960843622684479 153.96699374914169 333.63777858018875 1006.4451611638069 424.81207716464996 626.26561307907104 54.317129254341125 110.47088086605072 336.55857884883881 541.07217818498611
leaf_count=4152 24 25 227 63 116 644 33 2276 13 117 9 1191 35 113 224 203 121 541 71 1497 121 25 62 79 347 192 100 5 151 344 274
internal_value=0 -0.0014868 -0.00381844 0.00189137 -0.00206759 0.000517681 0.00648821 -0.00304727 -0.00755876 0.00690253 -0.00441048 -0.00371091 0.00198067 0.00366565 0.00228693 0.00490133 0.00490707 0.000254968 0.00288923 -0.00476145 0.00289304 0.000453603 -7.35891e-05 0.00484501 0.00580102 0.00579555 0.00668916 -0.00661182 -1.73218e-05 0.00172691 0.000569632
internal_weight=0 11021.1 6520.55 4500.52 4441.49 3465.04 1035.47 3793.3 2079.06 2373.94 2684.92 890.669 2574.37 648.184 503.502 591.234 882.736 1108.38 611.705 2613.5 641.488 1691.64 1605.68 505.72 1921.44 460.071 1632.71 1342.42 164.788 1031.6 877.631
internal_count=13395 12807 9566 3241 5401 2921 320 4969 4165 588 3938 1216 1705 432 257 316 356 1031 490 3929 321 1349 1324 200 564 263 447 2432 156 680 618
is_linear=0
shrinkage=0.01


Tree=13
num_leaves=32
num_cat=0
split_feature=5 7 13 11 4 1 0 0 0 0 9 8 6 8 1 10 0 4 4 14 9 4 9 3 5 7 7 10 6 6 2
split_gain=1347.33 850.818 418.515 278.535 244.501 210.095 170.304 167.363 135.274 119.876 118.608 117.625 116.856 112.754 100.703 95.2272 93.64 92.8428 153.648 92.6237 86.0742 91.6759 84.0003 82.8113 81.039 80.0642 80.8244 78.6864 102.286 105.525 78.6591
threshold=178.85000000000002 220.10500000000005 1.0000000180025095e-35 1.0000000180025095e-35 12.315000000000003 5.8050000000000006 148.15000000000003 64.605000000000004 606.50500000000011 18.500000000000004 88.550000000000026 269.36000000000007 0.81500000000000006 376.18344280000002 5.5250000000000012 3.6106667550000004 162.29500000000004 6.0450000000000008 4.6450000000000005 1.0000000180025095e-35 79.155000000000015 9.6950000000000021 54.485000000000007 183.50000000000003 395.63000000000005 200.03500000000003 201.05000000000004 2.3821798150000002 1.9909277230000002 1.9836518505000003 135.94500000000002
decision_type=2 2 2 2 2 2 2 2 2 2 2 2 2 2 2 2 2 2 2 2 2 2 2 2 2 2 2 2 2 2 2
left_child=1 2 8 5 7 12 -5 17 27 -2 19 -8 -3 20 -6 -16 30 18 -4 25 21 -7 -11 -20 -24 -9 -27 28 29 -1 -15
right_child=9 3 4 6 14 13 11 10 -10 22 -12 -13 -14 16 15 -17 -18 -19 23 -21 -22 -23 24 -25 -26 26 -28 -29 -30 -31 -32
leaf_value=-0.002606175820832259 0.011464123828354338 0.0059061137818849016 -0.0058695085197215001 0.0090884591072915109 -0.0090710219188611507 -0.0032759313520629939 0.0086012751622940829 -0.0074592562855036243 0.0098198770814278205 0.00077097146268849338 0.0083474025508117142 -0.0042588475614191582 -0.0050433387896107245 -0.0046668071994396083 -0.00176406832842656 0.0072866511779311229 -0.0012683825843734862 -0.0029595090926064368 -0.0089887251089779061 -0.0027791677850329843 0.010198101026719385 0.0017096460740642287 0.0048648468338475291 0.0069598723830568785 0.0094465545077263031 0.0099705136413130134 -0.0049279550963002832 -0.008700837150431481 -0.011654373557616431 0.015846405110713124 0.0076048819873157205
leaf_weight=178.06652003526688 452.49433690309525 111.40318650007248 151.6340309381485 723.16133993864059 56.949951589107513 574.0796309709549 109.55055606365204 1177.6285409331322 44.221389710903168 288.73133039474487 71.425926446914673 202.7601033449173 779.26580280065536 56.94401079416275 159.02199774980545 432.21189934015274 194.51409494876862 496.67344689369202 35.259234488010406 1271.079972743988 85.960843622684479 1031.5977507829666 1006.4451611638069 424.81207716464996 626.26561307907104 54.317129254341125 110.47088086605072 1719.8071765899658 99.445877194404602 37.521680057048798 631.27836918830872
leaf_count=208 24 25 227 112 116 644 22 2276 13 117 9 186 1191 55 123 193 113 541 71 1497 25 680 347 192 100 5 151 3680 262 2 188
internal_value=0 -0.00147194 -0.00378025 0.00187246 -0.00204692 0.000512504 0.00642332 -0.00301679 -0.00748317 0.00683351 -0.00436638 0.000252153 -0.0036738 0.00196086 0.003629 0.00485231 0.004858 0.000252419 0.00286034 -0.00471384 0.000449067 -7.2853e-05 0.00574301 0.00573759 0.00662227 -0.0065457 -1.71485e-05 -0.0078592 -0.00326463 0.000605372 0.00658951
internal_weight=0 11021.1 6520.55 4500.52 4441.49 3465.04 1035.47 3793.3 2079.06 2373.94 2684.92 312.311 890.669 2574.37 648.184 591.234 882.736 1108.38 611.705 2613.5 1691.64 1605.68 1921.44 460.071 1632.71 1342.42 164.788 2034.84 315.034 215.588 688.222
internal_count=13395 12807 9566 3241 5401 2921 320 4969 4165 588 3938 208 1216 1705 432 316 356 1031 490 3929 1349 1324 564 263 447 2432 156 4152 472 210 243
is_linear=0
shrinkage=0.01


Tree=14
num_leaves=32
num_cat=0
split_feature=5 7 13 11 4 1 0 0 0 0 9 6 8 1 8 3 0 4 4 14 8 9 4 4 9 3 5 6 7 7 8
split_gain=1320.52 833.887 410.187 272.992 239.635 205.914 167.257 164.033 132.582 117.491 116.248 114.531 110.511 98.6987 97.1909 93.5475 92.707 90.9953 150.59 90.7805 88.6908 84.3613 89.8515 84.2276 82.3287 81.1634 79.4264 78.6097 78.471 79.216 78.3589
threshold=178.85000000000002 220.10500000000005 1.0000000180025095e-35 1.0000000180025095e-35 12.315000000000003 5.8050000000000006 110.10000000000001 64.605000000000004 606.50500000000011 18.500000000000004 88.550000000000026 0.81500000000000006 376.18344280000002 5.5250000000000012 269.36000000000007 194.50000000000003 70.835000000000022 6.0450000000000008 4.6450000000000005 1.0000000180025095e-35 526.95000000000016 79.155000000000015 9.6950000000000021 12.455000000000002 54.485000000000007 183.50000000000003 395.63000000000005 2.5927508865000006 200.03500000000003 201.05000000000004 304.05000000000007
decision_type=2 2 2 2 2 2 2 2 2 2 2 2 2 2 2 2 2 2 2 2 2 2 2 2 2 2 2 2 2 2 2
left_child=1 2 8 5 7 11 -5 17 -1 -2 19 -3 21 -6 -8 -15 -14 18 -4 28 23 22 -7 -18 -11 -20 27 -26 -9 -30 -21
right_child=9 3 4 6 13 12 14 10 -10 24 -12 -13 16 15 -16 -17 20 -19 25 30 -22 -23 -24 -25 26 -27 -28 -29 29 -31 -32
leaf_value=-0.0077806106411963099 0.011349482060221681 0.0058470522897656335 -0.0058108136287855295 0.010269123693758927 -0.0089803115737648164 -0.0032431719878023824 0.0083498807666259854 -0.0073846643728098715 0.009721678752040672 0.00076326147959112256 0.0082639286407978334 -0.004992904997810986 0.01009389984759846 -0.0029534491854346389 -0.00092512305661412823 0.0068434871556003985 -0.00093389856918966064 -0.0029299139267475556 -0.0088988379416508681 -0.0055876362371160343 -0.0043542719429866088 0.010096119811693248 0.0016925493954737969 0.0076795445957294007 0.0087489409162049003 0.0068902736925354913 0.0093520898139582212 0.0028301459048647817 0.0098708091026238499 -0.0048786755484127196 -0.00057782845088544059
leaf_weight=2034.8412538766861 452.49433690309525 111.40318650007248 151.6340309381485 531.97012203931808 56.949951589107513 574.0796309709549 171.16924279928207 1177.6285409331322 44.221389710903168 288.73133039474487 71.425926446914673 779.26580280065536 241.24873131513596 123.0934134721756 332.33263450860977 468.14048361778259 172.08211916685104 496.67344689369202 35.259234488010406 551.46889573335648 135.76784586906433 85.960843622684479 1031.5977507829666 333.63777858018875 337.71281015872955 424.81207716464996 626.26561307907104 668.73235100507736 54.317129254341125 110.47088086605072 719.61107701063156
leaf_count=4152 24 25 227 63 116 644 33 2276 13 117 9 1191 35 113 224 203 121 541 71 811 121 25 680 79 72 192 100 275 5 151 686
internal_value=0 -0.00145722 -0.00374245 0.00185373 -0.00202645 0.000507379 0.00635909 -0.00298663 -0.00740834 0.00676517 -0.00432271 -0.00363706 0.00194125 0.00359271 0.00222798 0.00480379 0.00480942 0.000249894 0.00283174 -0.0046667 0.00282205 0.000444576 -7.21246e-05 0.00474863 0.00568558 0.00568022 0.00655605 0.0048162 -0.00648025 -1.69768e-05 -0.00275138
internal_weight=0 11021.1 6520.55 4500.52 4441.49 3465.04 1035.47 3793.3 2079.06 2373.94 2684.92 890.669 2574.37 648.184 503.502 591.234 882.736 1108.38 611.705 2613.5 641.488 1691.64 1605.68 505.72 1921.44 460.071 1632.71 1006.45 1342.42 164.788 1271.08
internal_count=13395 12807 9566 3241 5401 2921 320 4969 4165 588 3938 1216 1705 432 257 316 356 1031 490 3929 321 1349 1324 200 564 263 447 347 2432 156 1497
is_linear=0
shrinkage=0.01


Tree=15
num_leaves=32
num_cat=0
split_feature=5 7 13 11 4 1 0 0 0 0 9 8 6 8 1 10 0 4 4 14 4 9 4 9 3 5 4 8 9 10 3
split_gain=1294.24 817.292 402.024 267.56 234.867 201.816 164.72 160.768 129.944 115.153 113.935 113.611 112.252 108.311 96.7346 92.6172 90.8621 89.1845 147.594 88.974 86.9751 82.6825 88.0635 80.6903 79.5482 77.8458 78.2418 77.9636 77.4795 77.2363 140.592
threshold=178.85000000000002 220.10500000000005 1.0000000180025095e-35 1.0000000180025095e-35 12.315000000000003 5.8050000000000006 148.15000000000003 64.605000000000004 606.50500000000011 18.500000000000004 88.550000000000026 269.36000000000007 0.81500000000000006 376.18344280000002 5.5250000000000012 3.6106667550000004 70.835000000000022 6.0450000000000008 4.6450000000000005 1.0000000180025095e-35 12.455000000000002 79.155000000000015 9.6950000000000021 54.485000000000007 183.50000000000003 395.63000000000005 9.0150000000000023 264.35000000000008 51.865000000000002 3.8374834870000005 277.50000000000006
decision_type=2 2 2 2 2 2 2 2 2 2 2 2 2 2 2 2 2 2 2 2 2 2 2 2 2 2 2 2 2 2 2
left_child=1 2 8 5 7 12 -5 17 -1 -2 19 -8 -3 21 -6 -16 -15 18 -4 -9 -18 22 -7 -11 -20 26 27 -25 -14 -17 -31
right_child=9 3 4 6 14 13 11 10 -10 23 -12 -13 28 16 15 29 20 -19 24 -21 -22 -23 -24 25 -26 -27 -28 -29 -30 30 -32
leaf_value=-0.0077028045516052994 0.011235988241859412 0.0057885821160588088 -0.0057527051851073612 0.008916576380549374 -0.0088905089626523468 -0.0032107404409926527 0.0084317634000090954 -0.0064154431919146672 0.0096244627092179433 0.00075562918262463076 0.0081812892684367741 -0.0042070079458071882 0.00064342563357269386 0.0099929602801267503 -0.0017693292024732407 0.011378419311350814 -0.0022835029258433796 -0.0029006148775218678 -0.0088098493600542588 -0.0027238622373224777 0.0054641942968898976 0.0099951576139116673 0.0016756238928291034 0.0012874194159104124 0.0068213711582994531 0.0092585687431241369 0.0092971518390901862 0.0091067339753056163 -0.0067227668022387752 -0.0081826529551125918 0.0087888606827943409
leaf_weight=2034.8412538766861 452.49433690309525 111.40318650007248 151.6340309381485 723.16133993864059 56.949951589107513 574.0796309709549 109.55055606365204 1342.416551053524 44.221389710903168 288.73133039474487 71.425926446914673 202.7601033449173 188.28316897153854 241.24873131513596 159.02199774980545 216.38077872991562 221.09897822141647 496.67344689369202 35.259234488010406 1271.079972743988 420.38876539468765 85.960843622684479 1031.5977507829666 565.18136584758759 424.81207716464996 626.26561307907104 276.60031592845917 164.66347938776016 590.98263382911682 74.587153851985931 141.24396675825119
leaf_count=4152 24 25 227 112 116 644 22 2432 13 117 9 186 170 35 123 27 184 541 71 1497 137 25 680 257 192 100 57 33 1021 110 56
internal_value=0 -0.00144265 -0.00370503 0.0018352 -0.00200618 0.000502305 0.0062955 -0.00295676 -0.00733426 0.00669752 -0.00427949 0.000226348 -0.00360069 0.00192184 0.00355678 0.00475575 0.00476132 0.000247396 0.00280342 -0.00462003 0.00279383 0.00044013 -7.14034e-05 0.00562872 0.00562342 0.00649049 0.00476804 0.00305157 -0.00494298 0.0071565 0.00292383
internal_weight=0 11021.1 6520.55 4500.52 4441.49 3465.04 1035.47 3793.3 2079.06 2373.94 2684.92 312.311 890.669 2574.37 648.184 591.234 882.736 1108.38 611.705 2613.5 641.488 1691.64 1605.68 1921.44 460.071 1632.71 1006.45 729.845 779.266 432.212 215.831
internal_count=13395 12807 9566 3241 5401 2921 320 4969 4165 588 3938 208 1216 1705 432 316 356 1031 490 3929 321 1349 1324 564 263 447 347 290 1191 193 166
is_linear=0
shrinkage=0.01


Tree=16
num_leaves=32
num_cat=0
split_feature=5 7 13 11 4 1 0 0 0 0 9 6 8 1 8 10 0 4 4 14 9 4 9 3 4 5 13 10 6 6 7
split_gain=1268.49 801.028 394.024 262.236 230.193 197.8 161.716 157.569 127.358 112.861 111.667 110.018 106.156 94.8096 93.6666 90.7741 89.9007 87.4097 144.657 87.2034 81.0372 86.311 79.0846 77.9652 77.1871 99.1649 77.1742 77.1205 100.251 103.425 76.9094
threshold=178.85000000000002 220.10500000000005 1.0000000180025095e-35 1.0000000180025095e-35 12.315000000000003 5.8050000000000006 110.10000000000001 64.605000000000004 606.50500000000011 18.500000000000004 88.550000000000026 0.81500000000000006 376.18344280000002 5.5250000000000012 269.36000000000007 3.6106667550000004 162.29500000000004 6.0450000000000008 4.6450000000000005 1.0000000180025095e-35 79.155000000000015 9.6950000000000021 54.485000000000007 183.50000000000003 10.235000000000001 17.425000000000004 1.0000000180025095e-35 2.3821798150000002 1.9909277230000002 1.9836518505000003 200.03500000000003
decision_type=2 2 2 2 2 2 2 2 2 2 2 2 2 2 2 2 2 2 2 2 2 2 2 2 2 2 2 2 2 2 2
left_child=1 2 8 5 7 11 -5 17 27 -2 19 -3 20 -6 -8 -15 26 18 -4 30 21 -7 -11 -20 -23 -26 -14 28 29 -1 -9
right_child=9 3 4 6 13 12 14 10 -10 22 -12 -13 16 15 -16 -17 -18 -19 23 -21 -22 24 -24 -25 25 -27 -28 -29 -30 -31 -32
leaf_value=-0.0024252797267725118 0.011123627642503225 0.0057306964551145628 -0.0056951780707562103 0.010077266797473814 -0.0088016037188071768 -0.0031786327506550908 0.0081803188806468825 -0.0072466628680042926 0.0095282175634657344 0.000748072614772328 0.0080994762640134027 -0.0048935461968902493 -0.0033222989732216782 -0.0017516358579174683 -0.00092496887186765259 0.0070849333624896007 -0.0012891014777655304 -0.0028716085895136995 -0.0087217512076748962 -0.0026966238910899045 0.009895207159682378 0.0081895588542672832 0.0064255834777569897 0.0067531569174736896 -0.0037489111529076854 0.0031642556827021274 0.007562466567112164 -0.0084589941939842324 -0.011382995269522947 0.015842775799934886 4.734733810667204e-05
leaf_weight=178.06652003526688 452.49433690309525 111.40318650007248 151.6340309381485 531.97012203931808 56.949951589107513 574.0796309709549 171.16924279928207 1177.6285409331322 44.221389710903168 288.73133039474487 71.425926446914673 779.26580280065536 72.849112331867218 159.02199774980545 332.33263450860977 432.21189934015274 194.51409494876862 496.67344689369202 35.259234488010406 1271.079972743988 85.960843622684479 153.96699374914169 1632.710774242878 424.81207716464996 336.55857884883881 541.07217818498611 615.37326765060425 1719.8071765899658 99.445877194404602 37.521680057048798 164.78801012039185
leaf_count=208 24 25 227 63 116 644 33 2276 13 117 9 1191 69 123 224 193 113 541 71 1497 25 62 447 192 344 274 174 3680 262 2 156
internal_value=0 -0.00142822 -0.00366798 0.00181684 -0.00198612 0.000497283 0.00623255 -0.00292719 -0.00726091 0.00663054 -0.00423669 -0.00356469 0.00190262 0.00352121 0.00217044 0.00470819 0.00471371 0.000244922 0.00277538 -0.00457383 0.000435729 -7.06892e-05 0.00557244 0.00556718 0.00165887 0.000513157 0.0064103 -0.00762578 -0.00307714 0.000754153 -0.00635129
internal_weight=0 11021.1 6520.55 4500.52 4441.49 3465.04 1035.47 3793.3 2079.06 2373.94 2684.92 890.669 2574.37 648.184 503.502 591.234 882.736 1108.38 611.705 2613.5 1691.64 1605.68 1921.44 460.071 1031.6 877.631 688.222 2034.84 315.034 215.588 1342.42
internal_count=13395 12807 9566 3241 5401 2921 320 4969 4165 588 3938 1216 1705 432 257 316 356 1031 490 3929 1349 1324 564 263 680 618 243 4152 472 210 2432
is_linear=0
shrinkage=0.01


Tree=17
num_leaves=32
num_cat=0
split_feature=5 7 13 11 4 1 0 0 0 2 0 9 6 8 1 3 8 4 4 14 9 4 9 2 8 8 3 5 5 4 8
split_gain=1243.25 785.088 386.183 257.017 225.612 193.864 159.319 154.434 124.823 111.247 110.615 109.445 107.828 104.044 92.9229 89.5669 88.2264 85.6702 141.778 85.468 79.4245 84.5934 77.5108 77.1978 76.7995 103.888 76.4137 76.3921 76.2966 76.6848 76.4121
threshold=178.85000000000002 220.10500000000005 1.0000000180025095e-35 1.0000000180025095e-35 12.315000000000003 5.8050000000000006 148.15000000000003 64.605000000000004 606.50500000000011 132.28500000000003 18.500000000000004 88.550000000000026 0.81500000000000006 376.18344280000002 5.5250000000000012 194.50000000000003 588.45000000000016 6.0450000000000008 4.6450000000000005 1.0000000180025095e-35 79.155000000000015 9.6950000000000021 54.485000000000007 135.94500000000002 304.05000000000007 386.75000000000006 183.50000000000003 12.205000000000002 395.63000000000005 9.0150000000000023 264.35000000000008
decision_type=2 2 2 2 2 2 2 2 2 2 2 2 2 2 2 2 2 2 2 2 2 2 2 2 2 2 2 2 2 2 2
left_child=1 2 8 5 7 12 -5 17 -1 -8 -2 19 -3 20 -6 -16 23 18 -4 -9 21 -7 -12 -15 -21 27 -20 -26 29 30 -24
right_child=10 3 4 6 14 13 9 11 -10 -11 22 -13 -14 16 15 -17 -18 -19 26 24 -22 -23 28 -25 25 -27 -28 -29 -30 -31 -32
leaf_value=-0.0075495185088623939 0.011012390709483651 0.005673388972114145 -0.0056382267786498751 0.0087479674012878074 -0.0087135870977652092 -0.0031468466949038658 0.0090759931458450471 -0.0062877759762167938 0.0094329350793038412 -0.0038123617294754581 0.00074059216619893383 0.0080184813827079478 -0.0048446111284225811 -0.0022200320005062112 -0.0029292908420722997 0.0066569414855636687 -0.0047060136645385477 -0.0028428928833829727 -0.0086345333416984506 -0.0054775549320014282 0.0097962544355334295 0.0016422790474040015 0.0012102893311027162 0.0069576777080280032 0.0050235734686138794 -0.0061226617322698799 0.0066856253436968415 -0.0031666877045420155 0.0091017266906715192 0.0091399244581076532 0.008951411223645624
leaf_weight=2034.8412538766861 452.49433690309525 111.40318650007248 151.6340309381485 723.16133993864059 56.949951589107513 574.0796309709549 97.261380553245544 1342.416551053524 44.221389710903168 215.04927885532379 288.73133039474487 71.425926446914673 779.26580280065536 105.76472014188766 123.0934134721756 468.14048361778259 90.174068331718445 496.67344689369202 35.259234488010406 551.46889573335648 85.960843622684479 1031.5977507829666 565.18136584758759 686.79768645763397 314.50756901502609 226.57939004898071 424.81207716464996 178.52411794662476 626.26561307907104 276.60031592845917 164.66347938776016
leaf_count=4152 24 25 227 112 116 644 23 2432 13 185 117 9 1191 75 113 203 78 541 71 811 25 680 257 203 173 307 192 206 100 57 33
internal_value=0 -0.00141394 -0.0036313 0.00179867 -0.00196626 0.00049231 0.00617022 -0.00289792 -0.0071883 0.000201396 0.00656424 -0.00419432 -0.00352904 0.0018836 0.003486 0.00466111 0.00466657 0.000242472 0.00274763 -0.0045281 0.000431372 -6.99824e-05 0.00551671 0.00573294 -0.00266966 -0.000517845 0.00551151 0.00205792 0.00636133 0.0046561 0.0029568
internal_weight=0 11021.1 6520.55 4500.52 4441.49 3465.04 1035.47 3793.3 2079.06 312.311 2373.94 2684.92 890.669 2574.37 648.184 591.234 882.736 1108.38 611.705 2613.5 1691.64 1605.68 1921.44 792.562 1271.08 719.611 460.071 493.032 1632.71 1006.45 729.845
internal_count=13395 12807 9566 3241 5401 2921 320 4969 4165 208 588 3938 1216 1705 432 316 356 1031 490 3929 1349 1324 564 278 1497 686 263 379 447 347 290
is_linear=0
shrinkage=0.01


Tree=18
num_leaves=32
num_cat=0
split_feature=5 7 13 11 4 1 0 0 0 0 14 6 8 8 5 5 1 8 10 0 8 4 4 9 4 9 4 2 9 9 4
split_gain=1218.51 769.464 378.498 251.902 221.122 190.006 156.359 151.36 122.339 108.414 107.331 105.683 102.652 101.973 99.6493 97.7653 91.0737 90.9205 88.6954 87.725 85.1695 83.9654 138.957 82.384 80.4001 77.844 82.91 76.1357 75.9683 75.9376 75.651
threshold=178.85000000000002 220.10500000000005 1.0000000180025095e-35 1.0000000180025095e-35 12.315000000000003 5.8050000000000006 110.10000000000001 64.605000000000004 606.50500000000011 18.500000000000004 1.0000000180025095e-35 0.81500000000000006 304.05000000000007 376.18344280000002 11.705000000000002 10.305000000000001 5.5250000000000012 269.36000000000007 3.3439292365000006 70.835000000000022 526.95000000000016 6.0450000000000008 4.6450000000000005 88.550000000000026 12.455000000000002 79.155000000000015 9.6950000000000021 159.00500000000002 54.485000000000007 51.865000000000002 10.235000000000001
decision_type=2 2 2 2 2 2 2 2 2 2 2 2 2 2 2 2 2 2 2 2 2 2 2 2 2 2 2 2 2 2 2
left_child=1 2 8 5 7 11 -5 21 -1 -2 -9 -3 -12 25 15 23 -6 -8 -18 -15 24 22 -4 -14 -21 26 -7 -19 -11 -13 -28
right_child=9 3 4 6 16 13 17 10 -10 28 12 29 14 19 -16 -17 18 27 -20 20 -22 -23 -24 -25 -26 -27 30 -29 -30 -31 -32
leaf_value=-0.0074740234804173316 0.010902267801875715 0.0056166550951803496 -0.0055818442490312946 0.0098890138261828707 -0.0086264519773148109 -0.0031153779535207792 0.0080353909125206058 -0.0061255927131537774 0.0093386059564354671 0.00073318628243866028 -0.0054227795015677725 0.00073437311698232907 -0.0032536465508694722 0.0097604364683937482 -0.0038329698729362006 0.0088267377183859734 -0.0039908105597613909 -0.0026944978659205953 0.0063578121596404849 -0.00097729113757046991 -0.0043457398353625547 -0.0028144638876808447 0.0054563943134472498 0.012658016179212042 0.0074381703726745935 0.0096982919597546589 0.0080912406234652061 0.012088201510392107 0.0062977142336335138 -0.0065581574666446485 0.00049160284647324691
leaf_weight=2034.8412538766861 452.49433690309525 111.40318650007248 151.6340309381485 531.97012203931808 56.949951589107513 574.0796309709549 171.16924279928207 1360.15204423666 44.221389710903168 288.73133039474487 551.46889573335648 188.28316897153854 207.07880371809006 241.24873131513596 339.55264794826508 188.064084649086 99.5982546210289 292.786616563797 491.63564246892929 172.08211916685104 135.76784586906433 496.67344689369202 460.07131165266037 38.605973958969116 333.63777858018875 85.960843622684479 153.96699374914169 39.546017944812775 1632.710774242878 590.98263382911682 877.63075703382492
leaf_count=4152 24 25 227 63 116 644 33 2438 13 117 811 170 221 35 402 64 99 219 217 121 121 541 263 2 79 25 62 5 447 1021 618
internal_value=0 -0.0013998 -0.00359498 0.00178069 -0.0019466 0.000487387 0.00610852 -0.00286894 -0.00711642 0.0064986 -0.00415238 -0.00349375 -0.00212647 0.00186476 0.000224248 0.00340037 0.00345114 0.00211427 0.0046145 0.00461991 0.00268667 0.000240047 0.00272015 -0.000753348 0.00457463 0.000427058 -6.92824e-05 -0.000935426 0.00546154 -0.00479616 0.00162586
internal_weight=0 11021.1 6520.55 4500.52 4441.49 3465.04 1035.47 3793.3 2079.06 2373.94 2684.92 890.669 1324.77 2574.37 773.302 433.749 648.184 503.502 591.234 882.736 641.488 1108.38 611.705 245.685 505.72 1691.64 1605.68 332.333 1921.44 779.266 1031.6
internal_count=13395 12807 9566 3241 5401 2921 320 4969 4165 588 3938 1216 1500 1705 689 287 432 257 316 356 321 1031 490 223 200 1349 1324 224 564 1191 680
is_linear=0
shrinkage=0.01


Tree=19
num_leaves=32
num_cat=0
split_feature=5 7 13 11 4 1 0 0 0 2 0 9 0 8 1 3 0 4 4 14 9 4 10 6 6 7 7 2 13 3 9
split_gain=1194.26 754.152 370.966 246.889 216.722 186.225 153.555 148.348 119.905 107.959 106.256 105.735 103.801 99.9438 89.2613 87.4735 86.23 82.2945 136.191 82.1056 76.2949 81.2601 75.5858 98.2557 101.367 75.3789 77.6396 75.4665 75.0477 74.8931 74.4566
threshold=178.85000000000002 220.10500000000005 1.0000000180025095e-35 1.0000000180025095e-35 12.315000000000003 5.8050000000000006 148.15000000000003 64.605000000000004 606.50500000000011 132.28500000000003 18.500000000000004 88.550000000000026 27.150000000000002 376.18344280000002 5.5250000000000012 194.50000000000003 162.29500000000004 6.0450000000000008 4.6450000000000005 1.0000000180025095e-35 79.155000000000015 9.6950000000000021 2.3821798150000002 1.9909277230000002 1.9836518505000003 200.03500000000003 201.05000000000004 141.20243200000002 1.0000000180025095e-35 183.50000000000003 54.485000000000007
decision_type=2 2 2 2 2 2 2 2 2 2 2 2 2 2 2 2 2 2 2 2 2 2 2 2 2 2 2 2 2 2 2
left_child=1 2 8 5 7 12 -5 17 22 -8 -2 19 -3 20 -6 -16 28 18 -4 25 21 -7 23 24 -1 27 -27 -9 -15 -20 -12
right_child=10 3 4 6 14 13 9 11 -10 -11 30 -13 -14 16 15 -17 -18 -19 29 -21 -22 -23 -24 -25 -26 26 -28 -29 -30 -31 -32
leaf_value=-0.002250791541770858 0.010793244379915821 0.012155998922037075 -0.0055260258671149557 0.0085781174651988722 -0.0085401871743801122 -0.0030842242599746299 0.0089300812387029856 -0.0049577687759741655 0.0092452192501635173 -0.0037664303054775702 0.00072585441849951722 0.0078931847899204408 -0.0042051714233975806 -0.0033622700691413221 -0.0029328206015614288 0.0065407243529949236 -0.0013052788860940965 -0.0027863190978463332 -0.008602752210743447 -0.0026174084069967157 0.0096013095602711807 0.0016095978473533378 -0.0082241691838266014 -0.011118929860508765 0.015834583220816469 0.0099599156233665682 -0.0046420740701397503 -0.010112896203121361 0.0073714830994809234 0.0065642056790628824 0.0062347372577141328
leaf_weight=178.06652003526688 452.49433690309525 40.630311846733093 151.6340309381485 723.16133993864059 56.949951589107513 574.0796309709549 97.261380553245544 699.66841244697571 44.221389710903168 215.04927885532379 288.73133039474487 71.425926446914673 850.03867745399475 72.849112331867218 123.0934134721756 468.14048361778259 194.51409494876862 496.67344689369202 35.259234488010406 1271.079972743988 85.960843622684479 1031.5977507829666 1719.8071765899658 99.445877194404602 37.521680057048798 54.317129254341125 110.47088086605072 477.96012848615646 615.37326765060425 424.81207716464996 1632.710774242878
leaf_count=208 24 5 227 112 116 644 23 1130 13 185 117 9 1211 69 113 203 113 541 71 1497 25 680 3680 262 2 5 151 1146 174 192 447
internal_value=0 -0.0013858 -0.00355903 0.00176288 -0.00192713 0.000482513 0.00604743 -0.00284025 -0.00704526 0.000187582 0.00643361 -0.00411086 -0.00345881 0.00184611 0.00341663 0.00456836 0.00457371 0.000237647 0.00269295 -0.00443892 0.000422788 -6.85896e-05 -0.00739928 -0.00289614 0.000896847 -0.00616364 0.000171008 -0.00705006 0.0062353 0.00540183 0.00540693
internal_weight=0 11021.1 6520.55 4500.52 4441.49 3465.04 1035.47 3793.3 2079.06 312.311 2373.94 2684.92 890.669 2574.37 648.184 591.234 882.736 1108.38 611.705 2613.5 1691.64 1605.68 2034.84 315.034 215.588 1342.42 164.788 1177.63 688.222 460.071 1921.44
internal_count=13395 12807 9566 3241 5401 2921 320 4969 4165 208 588 3938 1216 1705 432 316 356 1031 490 3929 1349 1324 4152 472 210 2432 156 2276 243 263 564
is_linear=0
shrinkage=0.01


Tree=20
num_leaves=32
num_cat=0
split_feature=5 7 13 11 4 1 0 0 0 0 9 6 8 8 1 10 0 8 4 4 14 4 9 4 9 4 5 10 6 6 2
split_gain=1170.49 739.144 363.583 241.976 212.409 182.519 151.182 145.396 117.519 104.142 103.631 102.499 97.9549 88.2547 87.485 86.623 85.176 83.1515 80.6568 133.481 80.4717 78.4232 74.7766 79.643 74.38 74.1456 97.1915 74.0816 96.3004 99.3493 73.9359
threshold=178.85000000000002 220.10500000000005 1.0000000180025095e-35 1.0000000180025095e-35 12.315000000000003 5.8050000000000006 110.10000000000001 64.605000000000004 606.50500000000011 18.500000000000004 88.550000000000026 0.81500000000000006 376.18344280000002 269.36000000000007 5.5250000000000012 3.3439292365000006 70.835000000000022 526.95000000000016 6.0450000000000008 4.6450000000000005 1.0000000180025095e-35 12.455000000000002 79.155000000000015 9.6950000000000021 51.865000000000002 10.235000000000001 17.425000000000004 2.3821798150000002 1.9909277230000002 1.9836518505000003 159.00500000000002
decision_type=2 2 2 2 2 2 2 2 2 2 2 2 2 2 2 2 2 2 2 2 2 2 2 2 2 2 2 2 2 2 2
left_child=1 2 8 5 7 11 -5 18 27 -2 20 -3 22 -8 -6 -16 -14 21 19 -4 -9 -18 23 -7 -13 -25 -27 28 29 -1 -15
right_child=9 3 4 6 14 12 13 10 -10 -11 -12 24 16 30 15 -17 17 -19 -20 -21 -22 -23 -24 25 -26 26 -28 -29 -30 -31 -32
leaf_value=-0.0022282837443630792 0.010685312494023118 0.0055478943080413904 -0.005470765496887066 0.0097043427462174536 -0.0084547850591414481 -0.0030533819523068527 0.0078930640055151248 -0.0061020059256348593 0.009152768207663798 0.0053528589777992663 0.0078142528409637785 0.00076665187143761069 0.0095932663840148074 -0.0026787379268500104 -0.0039815135264659922 0.0062454970750742949 -0.00099475125599646458 -0.0043255692609594637 -0.0027584560993242401 0.0053478123245691411 -0.0025912343306335995 0.0073166021296639482 0.0095052959625132796 0.0079942317325591254 -0.0064506976686627285 -0.0037488567246546853 0.0030951783641489858 -0.0081419272083250588 -0.011007740484765056 0.015676237990505656 0.011888834674935872
leaf_weight=178.06652003526688 452.49433690309525 111.40318650007248 151.6340309381485 531.97012203931808 56.949951589107513 574.0796309709549 171.16924279928207 1342.416551053524 44.221389710903168 1921.4421046376228 71.425926446914673 188.28316897153854 241.24873131513596 292.786616563797 99.5982546210289 491.63564246892929 172.08211916685104 135.76784586906433 496.67344689369202 460.07131165266037 1271.079972743988 333.63777858018875 85.960843622684479 153.96699374914169 590.98263382911682 336.55857884883881 541.07217818498611 1719.8071765899658 99.445877194404602 37.521680057048798 39.546017944812775
leaf_count=208 24 25 227 63 116 644 33 2432 13 564 9 170 35 219 99 217 121 121 541 263 1497 79 25 62 1021 344 274 3680 262 2 5
internal_value=0 -0.00137194 -0.00352344 0.00174525 -0.00190786 0.000477688 0.00598696 -0.00281185 -0.0069748 0.00636927 -0.00406975 -0.00342422 0.00182765 0.00205939 0.00338246 0.00452267 0.00452797 0.00262303 0.000235271 0.00266602 -0.00439453 0.00448848 0.00041856 -6.79038e-05 -0.00470687 0.0015935 0.000470591 -0.00732529 -0.00286718 0.000887878 -0.000945265
internal_weight=0 11021.1 6520.55 4500.52 4441.49 3465.04 1035.47 3793.3 2079.06 2373.94 2684.92 890.669 2574.37 503.502 648.184 591.234 882.736 641.488 1108.38 611.705 2613.5 505.72 1691.64 1605.68 779.266 1031.6 877.631 2034.84 315.034 215.588 332.333
internal_count=13395 12807 9566 3241 5401 2921 320 4969 4165 588 3938 1216 1705 257 432 316 356 321 1031 490 3929 200 1349 1324 1191 680 618 4152 472 210 224
is_linear=0
shrinkage=0.01


Tree=21
num_leaves=32
num_cat=0
split_feature=5 7 13 11 4 1 0 0 0 0 9 0 8 8 1 3 0 8 4 4 14 4 7 7 2 8 8 0 3 9 4
split_gain=1147.2 724.435 356.348 237.161 208.182 178.887 148.173 142.503 115.18 102.069 101.569 100.625 96.0056 86.4985 85.7441 85.4291 83.481 81.4968 79.0518 130.825 78.8703 76.8626 73.8789 76.0945 73.9647 73.7263 100.888 75.0924 73.4027 73.2886 78.0581
threshold=178.85000000000002 220.10500000000005 1.0000000180025095e-35 1.0000000180025095e-35 12.315000000000003 5.8050000000000006 110.10000000000001 64.605000000000004 606.50500000000011 18.500000000000004 88.550000000000026 27.150000000000002 376.18344280000002 269.36000000000007 5.5250000000000012 194.50000000000003 70.835000000000022 526.95000000000016 6.0450000000000008 4.6450000000000005 1.0000000180025095e-35 12.455000000000002 200.03500000000003 201.05000000000004 141.20243200000002 304.05000000000007 386.75000000000006 87.930000000000021 183.50000000000003 79.155000000000015 9.6950000000000021
decision_type=2 2 2 2 2 2 2 2 2 2 2 2 2 2 2 2 2 2 2 2 2 2 2 2 2 2 2 2 2 2 2
left_child=1 2 8 5 7 11 -5 18 -1 -2 20 -3 29 -8 -6 -16 -14 21 19 -4 22 -18 24 -24 -9 -22 27 -27 -21 30 -7
right_child=9 3 4 6 14 12 13 10 -10 -11 -12 -13 16 -15 15 -17 17 -19 -20 28 25 -23 23 -25 -26 26 -28 -29 -30 -31 -32
leaf_value=-0.0072520375618529012 0.010578459265481475 0.011984100797954103 -0.0054160576980894024 0.0096072998342187563 -0.008370236787706346 -0.0030228478959972039 0.0078141332614813236 -0.0048471710456097616 0.0090612401589667668 0.0052993304863959414 0.0077361100748062515 -0.0041248347233146807 0.0094973338479825142 -0.00093581280117310253 -0.0029355536255981853 0.0064266281117695391 -0.00098480370516225457 -0.004282313555947586 -0.0027308712726819228 -0.008570202998268996 -0.0053164648755701328 0.0072434364908585992 0.009921335740016345 -0.0045346333434162778 -0.0099507464771107623 -0.0043942320526394827 -0.0059803002401632235 0.0044333475390468989 0.0064450854760451535 0.0094102431439242757 0.001577566545329253
leaf_weight=2034.8412538766861 452.49433690309525 40.630311846733093 151.6340309381485 531.97012203931808 56.949951589107513 574.0796309709549 171.16924279928207 699.66841244697571 44.221389710903168 1921.4421046376228 71.425926446914673 850.03867745399475 241.24873131513596 332.33263450860977 123.0934134721756 468.14048361778259 172.08211916685104 135.76784586906433 496.67344689369202 35.259234488010406 551.46889573335648 333.63777858018875 54.317129254341125 110.47088086605072 477.96012848615646 131.3647021651268 226.57939004898071 361.66698479652405 424.81207716464996 85.960843622684479 1031.5977507829666
leaf_count=4152 24 5 227 63 116 644 33 1130 13 564 9 1211 35 224 113 203 121 121 541 71 811 79 5 151 1146 174 307 205 192 25 680
internal_value=0 -0.00135822 -0.00348821 0.0017278 -0.00188878 0.000472911 0.00592709 -0.00278373 -0.00690506 0.00630558 -0.00402905 -0.00338998 0.00180937 0.0020388 0.00334864 0.00447745 0.00448269 0.0025968 0.000232918 0.00263936 -0.00435059 0.0044436 -0.00604099 0.000230317 -0.00691854 -0.00256532 -0.000457003 0.0020813 0.00529433 0.000414374 -6.72248e-05
internal_weight=0 11021.1 6520.55 4500.52 4441.49 3465.04 1035.47 3793.3 2079.06 2373.94 2684.92 890.669 2574.37 503.502 648.184 591.234 882.736 641.488 1108.38 611.705 2613.5 505.72 1342.42 164.788 1177.63 1271.08 719.611 493.032 460.071 1691.64 1605.68
internal_count=13395 12807 9566 3241 5401 2921 320 4969 4165 588 3938 1216 1705 257 432 316 356 321 1031 490 3929 200 2432 156 2276 1497 686 379 263 1349 1324
is_linear=0
shrinkage=0.01


Tree=22
num_leaves=32
num_cat=0
split_feature=5 7 13 11 4 1 0 0 0 2 0 9 6 8 1 10 0 4 4 14 2 9 7 5 9 1 10 6 6 7 7
split_gain=1124.37 710.019 349.257 232.442 204.039 175.327 146.048 139.667 112.888 103.889 100.038 99.5479 99.4109 94.0951 84.0378 84.5991 82.4103 77.4786 128.221 77.3008 74.287 72.9749 75.2995 93.8079 72.8545 72.6433 72.6074 94.3841 97.3723 72.4087 74.5802
threshold=178.85000000000002 220.10500000000005 1.0000000180025095e-35 1.0000000180025095e-35 12.315000000000003 5.8050000000000006 148.15000000000003 64.605000000000004 606.50500000000011 132.28500000000003 18.500000000000004 88.550000000000026 0.81500000000000006 376.18344280000002 5.5250000000000012 3.3439292365000006 162.29500000000004 6.0450000000000008 4.6450000000000005 1.0000000180025095e-35 135.94500000000002 54.485000000000007 209.10000000000002 243.25000000000003 51.865000000000002 4.5650000000000004 2.3821798150000002 1.9909277230000002 1.9836518505000003 200.03500000000003 201.05000000000004
decision_type=2 2 2 2 2 2 2 2 2 2 2 2 2 2 2 2 2 2 2 2 2 2 2 2 2 2 2 2 2 2 2
left_child=1 2 8 5 7 12 -5 17 26 -8 -2 19 -3 -7 -6 -16 20 18 -4 29 -15 -12 23 -23 -14 -20 27 28 -1 -9 -31
right_child=10 3 4 6 14 13 9 11 -10 -11 21 -13 24 16 15 -17 -18 -19 25 -21 -22 22 -24 -25 -26 -27 -28 -29 -30 30 -32
leaf_value=-0.0021334804246408924 0.010472674405280782 0.0054798605109080646 -0.0053618975571939472 0.0083358738906153754 -0.008286535127968649 0.00041023039604738134 0.0087290917016577506 -0.0068493566661497283 0.0089706275290480728 -0.0037257710207615714 0.00061207388308759511 0.0076587493731975912 0.00079784255869341423 -0.0048767834770278573 -0.0039715774824789184 0.0061352502338807447 -0.0013094365818315877 -0.0027035624745816163 -0.011739741595156962 -0.0025396687498458886 0.0070489876088108087 -0.0043204582211457485 0.0087013942119253482 0.0054229433334434373 -0.0063451135054548883 0.0061712210401118966 -0.0079879872718641928 -0.010825142827130634 0.015591996149458187 0.0098221224498834456 -0.0044892866617560721
leaf_weight=178.06652003526688 452.49433690309525 111.40318650007248 151.6340309381485 723.16133993864059 56.949951589107513 1691.638225376606 97.261380553245544 1177.6285409331322 44.221389710903168 215.04927885532379 288.73133039474487 71.425926446914673 188.28316897153854 56.94401079416275 99.5982546210289 491.63564246892929 194.51409494876862 496.67344689369202 23.884153068065643 1271.079972743988 631.27836918830872 111.47952854633331 651.4966099858284 869.73463571071625 590.98263382911682 436.18715858459473 1719.8071765899658 99.445877194404602 37.521680057048798 54.317129254341125 110.47088086605072
leaf_count=208 24 25 227 112 116 1349 23 2276 13 185 117 9 170 55 99 217 113 541 52 1497 188 114 123 210 1021 211 3680 262 2 5 151
internal_value=0 -0.00134464 -0.00345333 0.00171052 -0.00186989 0.000468182 0.00586782 -0.00275589 -0.00683601 0.000152986 0.00624253 -0.00398876 -0.00335608 0.00179128 0.00331515 0.00443267 0.00443787 0.000230589 0.00261297 -0.00430708 0.00606224 0.00524634 0.00606587 0.00431596 -0.00461926 0.00524139 -0.00717952 -0.00276598 0.00095152 -0.00598058 0.000228014
internal_weight=0 11021.1 6520.55 4500.52 4441.49 3465.04 1035.47 3793.3 2079.06 312.311 2373.94 2684.92 890.669 2574.37 648.184 591.234 882.736 1108.38 611.705 2613.5 688.222 1921.44 1632.71 981.214 779.266 460.071 2034.84 315.034 215.588 1342.42 164.788
internal_count=13395 12807 9566 3241 5401 2921 320 4969 4165 208 588 3938 1216 1705 432 316 356 1031 490 3929 243 564 447 324 1191 263 4152 472 210 2432 156
is_linear=0
shrinkage=0.01


Tree=23
num_leaves=32
num_cat=0
split_feature=5 7 13 11 4 1 0 0 0 0 9 0 8 8 1 3 0 4 4 4 14 0 8 8 0 9 4 4 5 2 9
split_gain=1101.99 695.89 342.306 227.816 199.979 171.838 143.264 136.888 110.642 98.0475 97.5668 97.5459 92.2226 83.9574 82.3654 83.4324 81.2842 79.5147 75.9368 126.159 75.7625 73.2378 72.2591 98.8805 73.5981 71.8301 76.5048 72.6701 95.2574 71.8057 71.5227
threshold=178.85000000000002 220.10500000000005 1.0000000180025095e-35 1.0000000180025095e-35 12.315000000000003 5.8050000000000006 110.10000000000001 64.605000000000004 606.50500000000011 18.500000000000004 88.550000000000026 27.150000000000002 376.18344280000002 269.36000000000007 5.5250000000000012 194.50000000000003 70.835000000000022 12.455000000000002 6.0450000000000008 5.0550000000000006 1.0000000180025095e-35 37.040000000000006 304.05000000000007 386.75000000000006 87.930000000000021 79.155000000000015 9.6950000000000021 10.235000000000001 17.425000000000004 159.00500000000002 54.485000000000007
decision_type=2 2 2 2 2 2 2 2 2 2 2 2 2 2 2 2 2 2 2 2 2 2 2 2 2 2 2 2 2 2 2
left_child=1 2 8 5 7 11 -5 18 -1 -2 20 -3 25 -8 -6 -16 -14 -18 19 21 -9 -4 -22 24 -24 26 -7 -28 -29 -15 -11
right_child=9 3 4 6 14 12 13 10 -10 30 -12 -13 16 29 15 -17 17 -19 -20 -21 22 -23 23 -25 -26 -27 27 28 -30 -31 -32
leaf_value=-0.0071077219168360784 0.010367947546693417 0.011814506669843523 0.0068443425164543782 0.0094278670127532545 -0.0082036695038888944 -0.0029967219625420846 0.0076756815092542544 -0.0059207701115149896 0.008880922041991441 0.00060595307805257851 0.007582161890480962 -0.0040460430687071797 0.0093417106263528043 -0.0026531028554627719 -0.0029375139606898177 0.0063146146034443471 -0.0023221193348113007 0.0050858486281721025 -0.0026765270816547005 0.0060952947174586969 -0.005237903553177623 -0.006451900775150619 -0.0043248930201735545 -0.0058951003744709641 0.0044144108947220349 0.0093120387780074674 0.007894411547260444 -0.0037312463999061378 0.0030443488129019698 0.011703075510705173 0.0060052093643002966
leaf_weight=2034.8412538766861 452.49433690309525 40.630311846733093 54.343079149723053 531.97012203931808 56.949951589107513 574.0796309709549 171.16924279928207 1342.416551053524 44.221389710903168 288.73133039474487 71.425926446914673 850.03867745399475 241.24873131513596 292.786616563797 123.0934134721756 468.14048361778259 221.09897822141647 420.38876539468765 496.67344689369202 383.07262325286865 551.46889573335648 174.28964018821716 131.3647021651268 226.57939004898071 361.66698479652405 85.960843622684479 153.96699374914169 336.55857884883881 541.07217818498611 39.546017944812775 1632.710774242878
leaf_count=4152 24 5 28 63 116 644 33 2432 13 117 9 1211 35 219 113 203 184 137 541 180 811 282 174 307 205 25 62 344 274 5 447
internal_value=0 -0.00133119 -0.00341879 0.00169342 -0.00185119 0.0004635 0.00580914 -0.00272833 -0.00676765 0.0061801 -0.00394887 -0.00332252 0.00177337 0.00198581 0.003282 0.00438834 0.00439349 0.00253257 0.000228283 0.00258684 -0.00426401 -0.00329155 -0.00251427 -0.000427036 0.00208589 0.000406128 -7.06548e-05 0.00155769 0.000446007 -0.000944785 0.00519387
internal_weight=0 11021.1 6520.55 4500.52 4441.49 3465.04 1035.47 3793.3 2079.06 2373.94 2684.92 890.669 2574.37 503.502 648.184 591.234 882.736 641.488 1108.38 611.705 2613.5 228.633 1271.08 719.611 493.032 1691.64 1605.68 1031.6 877.631 332.333 1921.44
internal_count=13395 12807 9566 3241 5401 2921 320 4969 4165 588 3938 1216 1705 257 432 316 356 321 1031 490 3929 310 1497 686 379 1349 1324 680 618 224 564
is_linear=0
shrinkage=0.01


Tree=24
num_leaves=32
num_cat=0
split_feature=5 7 13 4 11 14 1 7 13 1 0 0 3 2 7 0 0 0 3 3 0 0 8 8 2 7 5 7 5 6 7
split_gain=1080.06 682.663 292.78 266.335 158.167 149.303 142.622 137.519 124.322 122.533 109.872 118.755 108.007 104.421 121.214 98.7469 96.0964 93.9501 90.2476 126.4 89.502 89.4 84.821 82.5347 76.2452 72.4563 70.2366 71.9036 66.5017 64.0462 61.8679
threshold=178.85000000000002 199.07000000000002 1.0000000180025095e-35 12.975000000000003 1.0000000180025095e-35 1.0000000180025095e-35 5.8050000000000006 272.15000000000003 1.0000000180025095e-35 6.3724888475000006 55.010000000000012 606.50500000000011 233.50000000000003 137.68500000000003 297.50000000000006 27.150000000000002 18.500000000000004 112.05000000000001 279.50000000000006 276.50000000000006 61.045000000000009 89.450000000000017 412.75000000000006 269.36000000000007 135.94500000000002 139.90000000000003 395.63000000000005 1463.4500000000003 156.61000000000004 4.1650000000000009 107.15000000000002
decision_type=2 2 2 2 2 2 2 2 2 2 2 2 2 2 2 2 2 2 2 2 2 2 2 2 2 2 2 2 2 2 2
left_child=1 3 7 5 6 10 15 -3 -5 -8 22 30 -10 20 -15 -4 -2 -6 19 28 -9 -22 29 -19 -11 -14 27 -18 -7 -1 -12
right_child=16 2 4 8 17 18 9 13 12 24 11 -13 25 14 -16 -17 26 23 -20 -21 21 -23 -24 -25 -26 -27 -28 -29 -30 -31 -32
leaf_value=-0.0044551638947427459 0.010264267485223164 -0.0065909618184771838 0.013360213066697862 -0.0054511661893900656 0.0091737368348852964 -0.0025323400067093515 0.0071266225612099179 -0.009222389103920493 -0.0033716014421234226 -0.0028249194899861358 -0.0023636263925779048 0.0092310495151245713 -0.0026797491521894042 0.0034116310805825281 -0.0078514221106533114 -0.0033855995139597918 0.0029916257486800163 0.008942276081178261 -0.006920510480067088 0.009953533075182772 0.0075307437878914642 -0.0058421078687130278 0.012241334964539699 -0.00017972172061546176 0.0024449214927345889 0.0093494245274447114 0.0075683014481806431 0.013057498804350465 0.0082600700238870152 0.0056144017016731542 -0.0077737916918026563
leaf_weight=461.20796918869019 452.49433690309525 555.67480474710464 37.208332061767578 158.40828508138657 496.76127970218658 1531.3845860362053 488.88785153627396 48.658653795719147 123.60070770978928 334.16635757684708 235.09626108407974 44.678987622261047 59.643639266490936 151.67488718032837 258.23237663507462 656.8624272942543 1109.6006894111633 148.61412793397903 371.11922520399094 91.551411211490631 292.48761183023453 60.296285152435303 38.775072038173676 298.23223841190338 1538.8520919084549 312.05651193857193 736.02710920572281 75.814306020736694 59.305849015712738 73.187714397907257 2094.4378753900528
leaf_count=609 24 952 1 259 58 1899 197 93 125 281 354 11 58 96 453 778 426 22 658 29 141 83 6 174 837 99 135 3 14 41 4479
internal_value=0 -0.00131788 0.0012368 -0.00374251 0.00260233 -0.0045272 0.00149731 -0.00275842 0.00226014 0.00266839 -0.00596942 -0.00691807 0.00472639 -0.000133592 -0.00368384 -0.00248788 0.0061183 0.00618107 -0.00245704 -0.00147235 0.00349152 0.00524511 -0.00203987 0.00285411 0.00150473 0.0074192 0.00514193 0.0036354 -0.00212997 -0.00307609 -0.0072278
internal_weight=0 11021.1 5366.61 5654.45 3999.58 5000.74 3055.98 1367.02 653.709 2361.91 2947.38 2374.21 495.301 811.35 409.907 694.071 2373.94 943.608 2053.36 1682.24 401.443 352.784 573.171 446.846 1873.02 371.7 1921.44 1185.41 1590.69 534.396 2329.53
internal_count=13395 12807 4166 8641 2348 8100 2094 1818 541 1315 5500 4844 282 866 549 779 588 254 2600 1942 317 224 656 196 1118 157 564 429 1913 650 4833
is_linear=0
shrinkage=0.01


Tree=25
num_leaves=32
num_cat=0
split_feature=5 7 13 11 4 4 0 1 4 0 0 2 13 9 0 1 10 10 10 7 9 9 5 5 14 4 4 8 8 10 6
split_gain=1058.57 669.135 330.997 219.285 191.526 167.639 138.599 137.258 133.307 132.257 106.566 99.5013 98.0651 94.3087 94.1841 80.0616 81.684 74.4127 88.4602 106.468 85.313 74.1212 73.5733 106.908 72.6921 71.0944 82.8364 71.0839 77.4011 71.0717 92.4179
threshold=178.85000000000002 220.10500000000005 1.0000000180025095e-35 1.0000000180025095e-35 12.315000000000003 12.200000000000001 148.15000000000003 5.9974405125000008 12.705000000000002 64.605000000000004 606.50500000000011 132.28500000000003 1.0000000180025095e-35 88.550000000000026 18.500000000000004 5.5250000000000012 3.3439292365000006 4.2897845575000009 4.2350000000000012 144.05000000000004 66.985000000000014 79.155000000000015 20.405000000000005 16.505000000000006 1.0000000180025095e-35 8.3450000000000006 8.9650000000000016 183.73500000000004 153.10000000000002 2.3821798150000002 1.9909277230000002
decision_type=2 2 2 2 2 2 2 2 2 2 2 2 2 2 2 2 2 2 2 2 2 2 2 2 2 2 2 2 2 2 2
left_child=1 2 10 5 9 7 -5 27 -7 17 29 -8 -10 24 -2 -6 -17 18 19 -4 -21 -9 23 -14 -11 -26 -27 28 -3 30 -1
right_child=14 3 4 6 15 8 11 21 12 13 -12 -13 22 -15 -16 16 -18 -19 -20 20 -22 -23 -24 -25 25 26 -28 -29 -30 -31 -32
leaf_value=0.0010665866411159971 0.010161625732535482 -0.0092715770977392573 -0.0067382924335640734 0.0081034118597568972 -0.0081106599770040585 0.0094744367501037926 0.0085249833465111079 -0.00023434267313951723 -0.0040747157507956058 -0.0058010801791743031 0.0087128293403746834 -0.0036640316976573805 0.00099119103534271746 0.0074684564628236449 0.0050905156655125395 -0.0039541889648922138 0.0059769875134462122 -0.006559122209669541 0.010382839282240897 0.0034755780022188527 -0.0061954348370463199 0.0093450759474947142 -0.0010563427488940746 0.0089223629931816581 -0.0039428621360291256 0.0068209837330932069 -0.0028961538238194123 -0.0074015047046877879 0.0041152234193180138 -0.0077784758267513045 -0.010586766865335355
leaf_weight=215.58820009231567 452.49433690309525 63.818759322166443 175.34908592700958 723.16133993864059 56.949951589107513 261.08310687541962 97.261380553245544 1236.3428958654404 243.61517661809921 1342.416551053524 44.221389710903168 215.04927885532379 349.97661560773849 71.425926446914673 1921.4421046376228 99.5982546210289 491.63564246892929 140.64684200286865 95.116539180278778 589.34708273410797 107.9192396402359 86.418441534042358 306.73751777410507 330.41125267744064 913.89151418209076 154.92927652597427 202.259182035923 453.01387733221054 133.62604600191116 1719.8071765899658 99.445877194404602
leaf_count=210 24 131 275 112 116 65 23 1014 287 2432 13 185 224 9 564 99 217 230 14 338 174 23 187 66 1205 76 216 835 89 3680 262
internal_value=0 -0.0013047 -0.00335178 0.00166119 -0.00181029 0.000454526 0.00569912 -0.00145798 0.00298418 -0.00266869 -0.00664485 0.000131934 0.00160737 -0.00386841 0.00605712 0.00321324 0.004304 0.000237483 0.00122528 0.000227089 0.00197875 0.000391498 0.00300967 0.00484274 -0.00417824 -0.00246432 0.00131862 -0.00521906 -0.000211702 -0.0069786 -0.00261199
internal_weight=0 11021.1 6520.55 4500.52 4441.49 3465.04 1035.47 1973.22 1491.82 3793.3 2079.06 312.311 1230.74 2684.92 2373.94 648.184 591.234 1108.38 967.732 872.615 697.266 1322.76 987.125 680.388 2613.5 1271.08 357.188 650.459 197.445 2034.84 315.034
internal_count=13395 12807 9566 3241 5401 2921 320 2092 829 4969 4165 208 764 3938 588 432 316 1031 801 787 512 1037 477 290 3929 1497 292 1055 220 4152 472
is_linear=0
shrinkage=0.01


Tree=26
num_leaves=32
num_cat=0
split_feature=5 7 13 4 11 14 1 7 1 13 0 0 3 2 7 0 0 0 3 3 0 0 8 8 2 7 9 4 5 6 0
split_gain=1037.51 657.088 282.464 256.908 151.807 144.323 137.002 133.143 120.031 119.641 106.556 114.52 105.18 101.935 117.794 95.2426 92.3098 90.9323 88.1883 122.194 87.2733 87.0972 81.6382 79.9605 74.2711 70.4835 69.9878 74.517 64.4643 62.3782 61.4384
threshold=178.85000000000002 199.07000000000002 1.0000000180025095e-35 12.975000000000003 1.0000000180025095e-35 1.0000000180025095e-35 5.8050000000000006 272.15000000000003 6.3724888475000006 1.0000000180025095e-35 55.010000000000012 606.50500000000011 233.50000000000003 137.68500000000003 297.50000000000006 27.150000000000002 18.500000000000004 112.05000000000001 279.50000000000006 276.50000000000006 61.045000000000009 89.450000000000017 412.75000000000006 269.36000000000007 135.94500000000002 139.90000000000003 54.485000000000007 6.9850000000000012 156.61000000000004 4.1650000000000009 37.040000000000006
decision_type=2 2 2 2 2 2 2 2 2 2 2 2 2 2 2 2 2 2 2 2 2 2 2 2 2 2 2 2 2 2 2
left_child=1 3 7 5 6 10 15 -3 -8 -5 22 -12 -11 20 -15 -4 -2 -6 19 28 -9 -22 29 -19 -10 -14 -18 -28 30 -1 -7
right_child=16 2 4 9 17 18 8 13 24 12 11 -13 25 14 -16 -17 26 23 -20 -21 21 -23 -24 -25 -26 -27 27 -29 -30 -31 -32
leaf_value=-0.0043668655488433459 0.010060009392790033 -0.0064805542900853025 0.013131866391236119 -0.005339686448518316 0.0090062318573745394 0.0064779434125861214 0.0070336485547848916 -0.0090996844155431088 -0.0028037760551043634 -0.0033469159919118328 -0.00709745238723753 0.0090652318461236382 -0.0026587878404777904 0.0033601695768279362 -0.0077428743877145682 -0.0033141297904764415 0.00050118653674183146 0.008781400153467369 -0.0068180223062314083 0.0098017987207876332 0.007442556378877108 -0.0057569398068690525 0.012021423309880467 -0.00019721605420252339 0.0023973953364871386 0.0092054935643841439 0.0034743607891892536 0.0077696955820632458 0.0081506776341033326 0.005570712649157759 -0.0029232329457624146
leaf_weight=461.20796918869019 452.49433690309525 555.67480474710464 37.208332061767578 158.40828508138657 496.76127970218658 72.993768155574799 488.88785153627396 48.658653795719147 334.16635757684708 123.60070770978928 2329.5341364741325 44.678987622261047 59.643639266490936 151.67488718032837 258.23237663507462 656.8624272942543 288.73133039474487 148.61412793397903 371.11922520399094 91.551411211490631 292.48761183023453 60.296285152435303 38.775072038173676 298.23223841190338 1538.8520919084549 312.05651193857193 732.66799247264862 900.04278177022934 59.305849015712738 73.187714397907257 1458.3908178806305
leaf_count=609 24 952 1 259 58 30 197 93 281 125 4833 11 58 96 453 778 117 22 658 29 141 83 6 174 837 99 259 188 14 41 1869
internal_value=0 -0.00129166 0.00121471 -0.00367044 0.00255597 -0.00444111 0.0014734 -0.00270949 0.00262118 0.00222503 -0.00585907 -0.0067933 0.0046444 -0.000126767 -0.0036345 -0.00243248 0.00599655 0.00606202 -0.00240577 -0.00143238 0.00345493 0.00518656 -0.00198927 0.00278893 0.00146945 0.00730173 0.00503961 0.00584219 -0.00207896 -0.00300587 -0.00247512
internal_weight=0 11021.1 5366.61 5654.45 3999.58 5000.74 3055.98 1367.02 2361.91 653.709 2947.38 2374.21 495.301 811.35 409.907 694.071 2373.94 943.608 2053.36 1682.24 401.443 352.784 573.171 446.846 1873.02 371.7 1921.44 1632.71 1590.69 534.396 1531.38
internal_count=13395 12807 4166 8641 2348 8100 2094 1818 1315 541 5500 4844 282 866 549 779 588 254 2600 1942 317 224 656 196 1118 157 564 447 1913 650 1899
is_linear=0
shrinkage=0.01


Tree=27
num_leaves=32
num_cat=0
split_feature=5 7 13 4 11 14 1 7 1 13 0 0 3 2 7 0 0 0 3 3 0 0 8 8 2 7 5 7 5 6 0
split_gain=1016.86 644.012 276.843 251.795 148.786 141.451 134.276 130.493 117.642 117.26 104.435 112.241 103.087 99.9064 115.45 93.3473 90.4728 89.1228 86.4334 119.763 85.5366 85.3639 80.0136 78.3692 72.7931 69.0809 68.7246 70.3802 63.1815 61.1369 60.2158
